{"learner":{"attributes":{"scikit_learn":"{\"_estimator_type\": \"classifier\"}"},"feature_names":["number_of_open_accounts","total_credit_limit","total_balance","number_of_accounts_in_arrears"],"feature_types":["int","int","float","int"],"gradient_booster":{"model":{"gbtree_model_param":{"num_parallel_tree":"1","num_trees":"100"},"iteration_indptr":[0,1,2,3,4,5,6,7,8,9,10,11,12,13,14,15,16,17,18,19,20,21,22,23,24,25,26,27,28,29,30,31,32,33,34,35,36,37,38,39,40,41,42,43,44,45,46,47,48,49,50,51,52,53,54,55,56,57,58,59,60,61,62,63,64,65,66,67,68,69,70,71,72,73,74,75,76,77,78,79,80,81,82,83,84,85,86,87,88,89,90,91,92,93,94,95,96,97,98,99,100],"tree_info":[0,0,0,0,0,0,0,0,0,0,0,0,0,0,0,0,0,0,0,0,0,0,0,0,0,0,0,0,0,0,0,0,0,0,0,0,0,0,0,0,0,0,0,0,0,0,0,0,0,0,0,0,0,0,0,0,0,0,0,0,0,0,0,0,0,0,0,0,0,0,0,0,0,0,0,0,0,0,0,0,0,0,0,0,0,0,0,0,0,0,0,0,0,0,0,0,0,0,0,0],"trees":[{"base_weights":[-4.015495E-1,-1.0622698E0,8.783423E-1,-1.0658596E0,1.7819469E-1,1.7456129E0,4.8189846E-1,-7.677026E-1,-1.0835549E0,2.9413757E0,1.4235904E0,1.0573462E-1,1.258452E0,-3.2575336E-1,-4.1344404E-1,-3.2621253E-1,-7.04518E-1,3.3240595E0,6.014022E-1,1.2217796E0,9.510242E-1,2.3498468E-1,-4.6814516E-1,1.8205731E0,6.2449306E-1,-5.292361E-1,2.4632908E-1,7.7348515E-2,-8.599487E-1,3.071163E-1,1.0366137E0,1.0495988E0,2.0286493E0,-1.4282727E-2,3.965295E-1,-7.068983E-1,4.298147E-2,6.359703E-1,1.1206787E0,6.579303E-2,1.2483529E0,-4.7787027E-3,-1.7982808E-1,-6.504521E-2,2.5712812E-1,-2.8020024E-1,-6.029449E-2,3.9594024E-1,1.9649376E-1,6.475591E-1,2.789942E-1,1.8037075E-1,-4.8924763E-2,3.6180806E-1,1.0748076E-1,-2.5921446E-1,-7.068788E-2,4.0475813E-1,-6.0494803E-2,5.52908E-1,1.7153813E-1,-7.8443654E-2,1.8355094E-1,5.0700545E-1,2.1158476E-1],"categories":[],"categories_nodes":[],"categories_segments":[],"categories_sizes":[],"default_left":[0,0,0,0,0,0,0,0,0,0,0,0,0,0,0,0,0,0,0,0,0,0,0,0,0,0,0,0,0,0,0,0,0,0,0,0,0,0,0,0,0,0,0,0,0,0,0,0,0,0,0,0,0,0,0,0,0,0,0,0,0,0,0,0,0],"id":0,"left_children":[1,3,5,7,-1,9,11,13,15,17,19,21,23,-1,25,-1,27,29,-1,31,-1,33,35,37,39,41,43,-1,45,-1,-1,47,49,51,53,55,57,-1,59,61,63,-1,-1,-1,-1,-1,-1,-1,-1,-1,-1,-1,-1,-1,-1,-1,-1,-1,-1,-1,-1,-1,-1,-1,-1],"loss_changes":[9.992669E2,5.2649536E0,1.375445E2,3.2714233E0,0E0,4.4286255E1,8.0958466E1,4.8484535E0,2.9351807E-1,2.5740814E0,3.1765732E1,1.4062607E1,3.1113235E1,0E0,1.9527135E0,0E0,1.7386699E0,1.5304718E0,0E0,1.0689255E1,0E0,6.214735E0,4.2908154E0,7.5638885E0,1.5272779E1,7.330203E-1,1.3862815E0,0E0,2.4960804E-1,0E0,0E0,7.4645233E0,1.5511322E-1,5.739886E0,2.4666977E0,1.5630283E0,4.1251683E0,0E0,5.4224358E0,4.501815E0,3.78685E0,0E0,0E0,0E0,0E0,0E0,0E0,0E0,0E0,0E0,0E0,0E0,0E0,0E0,0E0,0E0,0E0,0E0,0E0,0E0,0E0,0E0,0E0,0E0,0E0],"parents":[2147483647,0,0,1,1,2,2,3,3,5,5,6,6,7,7,8,8,9,9,10,10,11,11,12,12,14,14,16,16,17,17,19,19,21,21,22,22,23,23,24,24,25,25,26,26,28,28,31,31,32,32,33,33,34,34,35,35,36,36,38,38,39,39,40,40],"right_children":[2,4,6,8,-1,10,12,14,16,18,20,22,24,-1,26,-1,28,30,-1,32,-1,34,36,38,40,42,44,-1,46,-1,-1,48,50,52,54,56,58,-1,60,62,64,-1,-1,-1,-1,-1,-1,-1,-1,-1,-1,-1,-1,-1,-1,-1,-1,-1,-1,-1,-1,-1,-1,-1,-1],"split_conditions":[1E0,1.345187E4,5E0,1.5E3,1.7819469E-1,3E0,2E0,1.69778E3,9.78526E3,2E3,2E0,1E1,9E0,-3.2575336E-1,4.34998E3,-3.2621253E-1,5E3,1.85587E3,6.014022E-1,7.02965E3,9.510242E-1,4.77716E3,9E3,4.5E3,3E0,1.85587E3,2E0,7.7348515E-2,1.5E1,3.071163E-1,1.0366137E0,3E3,5E3,2.81487E3,4.87737E3,8.81486E3,4.43046E3,6.359703E-1,6.33117E3,9.56065E3,1.2E1,-4.7787027E-3,-1.7982808E-1,-6.504521E-2,2.5712812E-1,-2.8020024E-1,-6.029449E-2,3.9594024E-1,1.9649376E-1,6.475591E-1,2.789942E-1,1.8037075E-1,-4.8924763E-2,3.6180806E-1,1.0748076E-1,-2.5921446E-1,-7.068788E-2,4.0475813E-1,-6.0494803E-2,5.52908E-1,1.7153813E-1,-7.8443654E-2,1.8355094E-1,5.0700545E-1,2.1158476E-1],"split_indices":[3,2,0,1,0,0,3,2,2,1,3,0,0,0,2,0,1,2,0,2,0,2,1,1,3,2,0,0,0,0,0,1,1,2,2,2,2,0,2,2,0,0,0,0,0,0,0,0,0,0,0,0,0,0,0,0,0,0,0,0,0,0,0,0,0],"split_type":[0,0,0,0,0,0,0,0,0,0,0,0,0,0,0,0,0,0,0,0,0,0,0,0,0,0,0,0,0,0,0,0,0,0,0,0,0,0,0,0,0,0,0,0,0,0,0,0,0,0,0,0,0,0,0,0,0,0,0,0,0,0,0,0,0],"sum_hessian":[1.1795514E3,7.780616E2,4.014898E2,7.7673456E2,1.3269953E0,1.24885E2,2.766048E2,4.6002502E1,7.3073206E2,2.4770578E1,1.00114426E2,1.8710634E2,8.949846E1,2.3148695E1,2.2853807E1,7.215906E2,9.141523E0,1.57765E1,8.99408E0,9.1267784E1,8.846635E0,1.5319423E2,3.39121E1,4.6444836E1,4.3053623E1,1.961004E1,3.2437663E0,1.1795514E0,7.9619718E0,1.3269953E0,1.4449504E1,7.711317E1,1.4154616E1,6.0599453E1,9.259478E1,2.2853807E1,1.1058294E1,3.1110666E1,1.53341675E1,2.3296139E1,1.9757484E1,2.5065467E0,1.7103495E1,2.2116587E0,1.0321075E0,6.78242E0,1.1795514E0,4.438062E1,3.273255E1,1.1795513E1,2.3591027E0,1.1205738E1,4.9393715E1,2.8014345E0,8.979335E1,1.651372E1,6.3400884E0,1.0321075E0,1.0026187E1,5.602869E0,9.731298E0,1.4891836E1,8.404304E0,9.731298E0,1.0026187E1],"tree_param":{"num_deleted":"0","num_feature":"4","num_nodes":"65","size_leaf_vector":"1"}},{"base_weights":[-3.3922824E-1,-9.651218E-1,5.058227E-1,-9.6921545E-1,1.369383E-1,1.1112427E0,3.5561547E-1,-6.5516853E-1,-9.892731E-1,1.266317E0,5.625633E-1,1.724316E-1,7.364707E-1,-2.9892242E-1,-3.225994E-1,-9.9352664E-1,-6.052848E-1,4.897134E-1,1.1533186E0,1.3438544E-1,1.2417637E0,3.640198E-1,-1.1841216E-1,9.5825714E-1,3.8893226E-1,-4.2817286E-1,2.0782912E-1,-9.5187134E-1,-1.046741E0,6.278438E-2,-7.626277E-1,9.059074E-1,1.2907634E0,3.9390785E-1,-2.996198E-1,1.6498257E0,4.4597587E-1,3.0449E-1,9.3145573E-1,-2.4178913E-3,-3.7204188E-1,1.0015208E0,-3.214824E-1,4.4938713E-2,7.07245E-1,-9.0826884E-2,-2.5848925E-1,2.3867908E-1,-7.0056334E-2,-2.928343E-1,-1.944658E-1,-1.1359239E-1,-3.150177E-1,-2.5134367E-1,-5.1769126E-2,3.7928358E-2,3.54734E-1,5.789306E-1,2.9691967E-1,-2.4280839E-2,3.4090406E-1,2.2784036E-2,-2.4591593E-1,8.486518E-2,5.8128816E-1,-5.1763486E-2,2.1101509E-1,-7.600874E-2,1.0208165E-1,3.3159918E-1,-3.670247E-2,-3.8353745E-2,1.4692633E-1,-1.7920585E-1,1.6089952E-2,3.9404675E-1,2.4210784E-1,6.804333E-2,-2.1217544E-1,6.893778E-2,-1.4078331E-1,3.342219E-1,1.4422277E-1],"categories":[],"categories_nodes":[],"categories_segments":[],"categories_sizes":[],"default_left":[0,0,0,0,0,0,0,0,0,0,0,0,0,0,0,0,0,0,0,0,0,0,0,0,0,0,0,0,0,0,0,0,0,0,0,0,0,0,0,0,0,0,0,0,0,0,0,0,0,0,0,0,0,0,0,0,0,0,0,0,0,0,0,0,0,0,0,0,0,0,0,0,0,0,0,0,0,0,0,0,0,0,0],"id":1,"left_children":[1,3,5,7,-1,9,11,13,15,17,19,21,23,-1,25,27,29,-1,31,33,35,37,39,41,43,45,47,49,51,-1,53,55,57,59,61,63,65,67,69,71,73,75,77,79,81,-1,-1,-1,-1,-1,-1,-1,-1,-1,-1,-1,-1,-1,-1,-1,-1,-1,-1,-1,-1,-1,-1,-1,-1,-1,-1,-1,-1,-1,-1,-1,-1,-1,-1,-1,-1,-1,-1],"loss_changes":[5.774313E2,4.0912476E0,4.1873146E1,3.2921143E0,0E0,7.1091385E0,2.595707E1,4.2763176E0,3.5583496E-1,1.0488129E0,6.247214E0,1.418305E1,8.963051E0,0E0,1.3207681E0,2.849121E-1,1.3104572E0,0E0,7.8806305E-1,1.7679731E0,1.9940758E0,4.892334E0,2.9860525E0,4.377678E0,5.318945E0,7.5419235E-1,1.3076217E0,1.8352966E0,1.4282227E-1,0E0,1.9884491E-1,5.004612E0,4.7553215E0,3.4760745E0,1.2439442E0,1.4923067E0,7.9323524E-1,2.8840694E0,2.712017E0,4.425486E0,3.087235E0,3.2540665E0,8.271998E-1,2.4417727E0,1.796915E0,0E0,0E0,0E0,0E0,0E0,0E0,0E0,0E0,0E0,0E0,0E0,0E0,0E0,0E0,0E0,0E0,0E0,0E0,0E0,0E0,0E0,0E0,0E0,0E0,0E0,0E0,0E0,0E0,0E0,0E0,0E0,0E0,0E0,0E0,0E0,0E0,0E0,0E0],"parents":[2147483647,0,0,1,1,2,2,3,3,5,5,6,6,7,7,8,8,9,9,10,10,11,11,12,12,14,14,15,15,16,16,18,18,19,19,20,20,21,21,22,22,23,23,24,24,25,25,26,26,27,27,28,28,30,30,31,31,32,32,33,33,34,34,35,35,36,36,37,37,38,38,39,39,40,40,41,41,42,42,43,43,44,44],"right_children":[2,4,6,8,-1,10,12,14,16,18,20,22,24,-1,26,28,30,-1,32,34,36,38,40,42,44,46,48,50,52,-1,54,56,58,60,62,64,66,68,70,72,74,76,78,80,82,-1,-1,-1,-1,-1,-1,-1,-1,-1,-1,-1,-1,-1,-1,-1,-1,-1,-1,-1,-1,-1,-1,-1,-1,-1,-1,-1,-1,-1,-1,-1,-1,-1,-1,-1,-1,-1,-1],"split_conditions":[1E0,1.345187E4,4E0,1.5E3,1.369383E-1,3E3,2E0,1.69778E3,9.78526E3,1E3,4.5E3,7E0,9E0,-2.9892242E-1,4.34998E3,5E3,5E3,4.897134E-1,3.94331E3,4.90043E3,5.5E3,8.32277E3,1E1,1.259664E4,3E0,3E0,4.64397E3,5.62742E3,6.6241E2,6.278438E-2,1.5E1,1.5E3,1.5E3,4.03823E3,4E3,2.96284E3,6E3,2.14575E3,7E3,8.0166E3,9E3,6E0,4E3,8.5E3,7.5909E3,-9.0826884E-2,-2.5848925E-1,2.3867908E-1,-7.0056334E-2,-2.928343E-1,-1.944658E-1,-1.1359239E-1,-3.150177E-1,-2.5134367E-1,-5.1769126E-2,3.7928358E-2,3.54734E-1,5.789306E-1,2.9691967E-1,-2.4280839E-2,3.4090406E-1,2.2784036E-2,-2.4591593E-1,8.486518E-2,5.8128816E-1,-5.1763486E-2,2.1101509E-1,-7.600874E-2,1.0208165E-1,3.3159918E-1,-3.670247E-2,-3.8353745E-2,1.4692633E-1,-1.7920585E-1,1.6089952E-2,3.9404675E-1,2.4210784E-1,6.804333E-2,-2.1217544E-1,6.893778E-2,-1.4078331E-1,3.342219E-1,1.4422277E-1],"split_indices":[3,2,0,1,0,1,3,2,2,1,1,0,0,0,2,1,1,0,2,2,1,2,0,2,3,0,2,2,2,0,0,1,1,2,1,2,1,2,1,2,1,0,1,1,2,0,0,0,0,0,0,0,0,0,0,0,0,0,0,0,0,0,0,0,0,0,0,0,0,0,0,0,0,0,0,0,0,0,0,0,0,0,0],"split_type":[0,0,0,0,0,0,0,0,0,0,0,0,0,0,0,0,0,0,0,0,0,0,0,0,0,0,0,0,0,0,0,0,0,0,0,0,0,0,0,0,0,0,0,0,0,0,0,0,0,0,0,0,0,0,0,0,0,0,0,0,0,0,0,0,0,0,0,0,0,0,0,0,0,0,0,0,0,0,0,0,0,0,0],"sum_hessian":[1.0898112E3,6.260099E2,4.638012E2,6.245297E2,1.4802151E0,9.0924835E1,3.7287637E2,3.9513985E1,5.850157E2,6.9869545E1,2.1055294E1,2.5275766E2,1.201187E2,1.8517561E1,2.0996426E1,5.770363E2,7.9793863E0,1.3308921E1,5.656062E1,1.3648768E1,7.4065247E0,1.5222833E2,1.00529335E2,7.22525E1,4.7866196E1,1.7671894E1,3.3245325E0,3.3426602E2,2.427703E2,1.2383479E0,6.741039E0,2.2910683E1,3.3649937E1,8.59913E0,5.0496387E0,4.1865554E0,3.2199693E0,1.391651E2,1.3063231E1,6.967425E1,3.0855083E1,7.010006E1,2.1524408E0,2.355356E1,2.4312635E1,1.5023475E1,2.6484191E0,1.0815442E0,2.2429883E0,3.0750116E2,2.6764864E1,1.7686033E0,2.4100168E2,5.606771E0,1.1342676E0,6.3812027E0,1.652948E1,9.043205E0,2.4606733E1,5.788163E0,2.810967E0,3.4281397E0,1.6214988E0,1.0730255E0,3.1135302E0,1.0431306E0,2.1768386E0,8.021847E0,1.3114325E2,1.1171113E1,1.892118E0,5.611407E1,1.356018E1,1.9912197E1,1.0942887E1,2.4710773E1,4.5389286E1,1.05914E0,1.0933008E0,1.7732197E1,5.821365E0,7.2936673E0,1.7018967E1],"tree_param":{"num_deleted":"0","num_feature":"4","num_nodes":"83","size_leaf_vector":"1"}},{"base_weights":[-2.8155357E-1,-8.793495E-1,3.334984E-1,-8.839752E-1,1.0636288E-1,7.143993E-1,2.3427564E-1,-5.574464E-1,-9.0678656E-1,8.019616E-1,3.9126864E-1,1.1440416E-1,4.7050184E-1,-2.7584782E-1,-2.547771E-1,-8.5786664E-1,-9.6932584E-1,4.5580113E-1,7.56159E-1,9.1276325E-2,8.164904E-1,2.3760678E-1,-8.881437E-2,5.626507E-1,1.4038393E-1,-3.934916E-1,5.431551E-2,-8.910019E-1,-5.019364E-1,-9.7741336E-2,-9.729956E-1,6.8609244E-1,1.1472251E0,2.5462058E-1,-3.3915964E-1,4.934198E-1,4.8089284E-1,2.1369621E-1,8.220735E-1,-1.7823634E-3,-2.9351735E-1,4.2835993E-1,9.2829144E-1,5.1471586E-3,3.737147E-1,-5.289766E-2,-1.958876E-1,-8.5441746E-2,1.3954183E-1,-2.9381642E-1,-2.5305066E-1,1.6544016E-2,-2.0110388E-1,-2.9744714E-1,-2.240562E-1,2.1997891E-1,-6.2236153E-2,4.8963863E-1,1.9244634E-1,-5.9459444E-2,1.4104146E-1,5.285694E-2,-2.3520178E-1,-1.2593928E-1,2.2862643E-1,1.326014E-1,4.6747297E-2,3.0173713E-1,3.2225285E-2,-9.2733085E-2,3.866032E-2,-1.4816499E-1,1.1535408E-2,2.1735135E-1,7.541731E-2,3.5914212E-1,1.4432509E-1,2.7472773E-1,-5.0187755E-2],"categories":[],"categories_nodes":[],"categories_segments":[],"categories_sizes":[],"default_left":[0,0,0,0,0,0,0,0,0,0,0,0,0,0,0,0,0,0,0,0,0,0,0,0,0,0,0,0,0,0,0,0,0,0,0,0,0,0,0,0,0,0,0,0,0,0,0,0,0,0,0,0,0,0,0,0,0,0,0,0,0,0,0,0,0,0,0,0,0,0,0,0,0,0,0,0,0,0,0],"id":2,"left_children":[1,3,5,7,-1,9,11,13,15,17,19,21,23,-1,25,27,29,-1,31,33,35,37,39,41,43,45,47,49,51,-1,53,55,57,59,61,-1,63,65,67,69,71,73,75,77,-1,-1,-1,-1,-1,-1,-1,-1,-1,-1,-1,-1,-1,-1,-1,-1,-1,-1,-1,-1,-1,-1,-1,-1,-1,-1,-1,-1,-1,-1,-1,-1,-1,-1,-1],"loss_changes":[3.6599573E2,3.1938171E0,1.8388218E1,3.2416382E0,0E0,2.543232E0,1.1017769E1,3.6498432E0,6.0217285E-1,1.430275E0,2.9208286E0,6.548127E0,3.9150333E0,0E0,9.084288E-1,2.7564392E0,1.5054321E-1,0E0,1.2891579E0,1.1335355E0,1.8739452E0,2.0962515E0,1.7654245E0,4.6260796E0,4.4757047E0,6.9636154E-1,1.147753E0,2.1176147E-1,2.4222603E0,0E0,8.076477E-2,2.9655037E0,1.4116297E0,1.2025775E0,1.1757264E0,0E0,2.4058676E0,2.0125575E0,6.8473625E-1,2.8729172E0,1.985502E0,3.8368368E0,2.6253471E0,4.505935E0,0E0,0E0,0E0,0E0,0E0,0E0,0E0,0E0,0E0,0E0,0E0,0E0,0E0,0E0,0E0,0E0,0E0,0E0,0E0,0E0,0E0,0E0,0E0,0E0,0E0,0E0,0E0,0E0,0E0,0E0,0E0,0E0,0E0,0E0,0E0],"parents":[2147483647,0,0,1,1,2,2,3,3,5,5,6,6,7,7,8,8,9,9,10,10,11,11,12,12,14,14,15,15,16,16,18,18,19,19,20,20,21,21,22,22,23,23,24,24,25,25,26,26,27,27,28,28,30,30,31,31,32,32,33,33,34,34,36,36,37,37,38,38,39,39,40,40,41,41,42,42,43,43],"right_children":[2,4,6,8,-1,10,12,14,16,18,20,22,24,-1,26,28,30,-1,32,34,36,38,40,42,44,46,48,50,52,-1,54,56,58,60,62,-1,64,66,68,70,72,74,76,78,-1,-1,-1,-1,-1,-1,-1,-1,-1,-1,-1,-1,-1,-1,-1,-1,-1,-1,-1,-1,-1,-1,-1,-1,-1,-1,-1,-1,-1,-1,-1,-1,-1,-1,-1],"split_conditions":[1E0,1.345187E4,4E0,1.5E3,1.0636288E-1,3E3,2E0,1.69778E3,5E3,2E0,4.5E3,7E0,1.1E1,-2.7584782E-1,3.34088E3,5.62742E3,6.6241E2,4.5580113E-1,7.24129E3,4E3,3E0,1.018665E4,1E1,3E0,1.8E1,2.47598E3,2E0,2.09633E3,3E3,-9.7741336E-2,7.81094E3,6.57369E3,1.5E3,3E0,4.06322E3,4.934198E-1,3.13787E3,3.16421E3,6E3,4.81573E3,9E3,5.22029E3,7.88603E3,5.8766E3,3.737147E-1,-5.289766E-2,-1.958876E-1,-8.5441746E-2,1.3954183E-1,-2.9381642E-1,-2.5305066E-1,1.6544016E-2,-2.0110388E-1,-2.9744714E-1,-2.240562E-1,2.1997891E-1,-6.2236153E-2,4.8963863E-1,1.9244634E-1,-5.9459444E-2,1.4104146E-1,5.285694E-2,-2.3520178E-1,-1.2593928E-1,2.2862643E-1,1.326014E-1,4.6747297E-2,3.0173713E-1,3.2225285E-2,-9.2733085E-2,3.866032E-2,-1.4816499E-1,1.1535408E-2,2.1735135E-1,7.541731E-2,3.5914212E-1,1.4432509E-1,2.7472773E-1,-5.0187755E-2],"split_indices":[3,2,0,1,0,1,3,2,1,0,1,0,0,0,2,2,2,0,2,1,0,2,0,3,0,2,0,2,1,0,2,2,1,0,2,0,2,2,1,2,1,2,2,2,0,0,0,0,0,0,0,0,0,0,0,0,0,0,0,0,0,0,0,0,0,0,0,0,0,0,0,0,0,0,0,0,0,0,0],"split_type":[0,0,0,0,0,0,0,0,0,0,0,0,0,0,0,0,0,0,0,0,0,0,0,0,0,0,0,0,0,0,0,0,0,0,0,0,0,0,0,0,0,0,0,0,0,0,0,0,0,0,0,0,0,0,0,0,0,0,0,0,0,0,0,0,0,0,0,0,0,0,0,0,0,0,0,0,0,0,0],"sum_hessian":[9.936335E2,5.036674E2,4.8996613E2,5.0206882E2,1.5985842E0,9.997553E1,3.8999057E2,3.4445316E1,4.676235E2,7.74942E1,2.2481329E1,2.5969455E2,1.3029604E2,1.4756261E1,1.9689056E1,2.706394E2,1.9698409E2,2.7200744E0,7.4774124E1,1.3893895E1,8.587435E0,1.615715E2,9.812304E1,1.01311615E2,2.8984423E1,1.3401626E1,6.287431E0,2.4621481E2,2.4424587E1,1.6260288E0,1.9535806E2,6.574851E1,9.025616E0,1.0367889E1,3.526006E0,1.3513776E0,7.236057E0,1.5653334E2,5.0381618E0,6.955821E1,2.8564829E1,7.5685684E1,2.5625933E1,2.6719912E1,2.264511E0,8.209822E0,5.1918044E0,3.612324E0,2.6751068E0,7.920791E1,1.6700691E2,5.8258395E0,1.8598747E1,1.7746024E2,1.7897823E1,6.2622055E1,3.1264563E0,3.4706826E0,5.554933E0,3.3692346E0,6.9986544E0,1.9133464E0,1.6126595E0,1.6043364E0,5.6317205E0,3.0312178E1,1.2622116E2,3.6837916E0,1.3543704E0,2.034195E1,4.9216263E1,1.7509127E1,1.1055702E1,2.7153059E1,4.8532623E1,1.4957172E1,1.066876E1,3.5679312E0,2.3151981E1],"tree_param":{"num_deleted":"0","num_feature":"4","num_nodes":"79","size_leaf_vector":"1"}},{"base_weights":[-2.2990228E-1,-7.9710174E-1,2.3132849E-1,-6.447532E-1,-8.569655E-1,4.2502365E-1,1.20360225E-1,-7.4777955E-1,-1.1830381E-1,-8.614066E-1,-3.7941788E-4,3.6013746E-1,7.220679E-1,1.1126676E-2,2.9131415E-1,-9.140563E-1,-6.480347E-1,-3.0033758E-1,2.709297E-1,-8.74237E-1,-6.403328E-1,7.4933875E-1,3.1016275E-1,3.4077704E-1,4.2225298E-1,5.0152473E-2,-2.2849247E-1,2.0604382E-1,5.196481E-1,-6.7220974E-1,-3.0003935E-1,-2.7095982E-1,-7.54114E-1,1.5466335E-1,-4.8158032E-1,7.299847E-1,-1.9596717E-1,-7.998677E-1,-9.144994E-1,-2.550407E-1,-7.163311E-1,4.8713553E-1,3.9590698E-1,5.5856246E-1,2.4899705E-1,2.0365833E-1,6.918413E-1,-1.0577301E-2,2.9083174E-1,-4.014172E-1,2.7648095E-2,4.1422358E-1,-7.536942E-2,7.8359735E-1,-3.4134266E-1,-2.6289302E-1,3.567256E-2,-4.2087007E-2,-2.3096506E-1,-2.7160907E-1,-1.6571495E-1,-2.3425138E-2,-2.1088605E-1,2.1269675E-2,3.4802836E-1,-2.0829584E-1,1.0236332E-1,-2.4965717E-1,-1.3345829E-1,-6.962222E-2,-2.800309E-1,-1.6404593E-1,1.1276021E-1,-6.381671E-2,-2.3789884E-1,3.4892103E-1,7.375613E-2,1.3629836E-1,3.7310117E-1,-7.608774E-2,8.708814E-2,1.0935476E-1,-6.3031666E-2,1.4259177E-2,2.4172269E-1,5.301378E-2,-3.177993E-2,2.1505418E-1,-1.0172668E-2,-1.8154268E-1,2.4944827E-2,3.4966958E-1,-5.8606323E-2,7.6587684E-2,2.1353446E-1,-1.0192478E-1,1.0913575E-1,1.2003718E-1,3.2604912E-1,2.112774E-1,-2.706145E-1],"categories":[],"categories_nodes":[],"categories_segments":[],"categories_sizes":[],"default_left":[0,0,0,0,0,0,0,0,0,0,0,0,0,0,0,0,0,0,0,0,0,0,0,0,0,0,0,0,0,0,0,0,0,0,0,0,0,0,0,0,0,0,0,0,0,0,0,0,0,0,0,0,0,0,0,0,0,0,0,0,0,0,0,0,0,0,0,0,0,0,0,0,0,0,0,0,0,0,0,0,0,0,0,0,0,0,0,0,0,0,0,0,0,0,0,0,0,0,0,0,0],"id":3,"left_children":[1,3,5,7,9,11,13,15,17,19,-1,21,23,25,27,29,31,33,35,37,39,41,43,-1,45,47,49,51,53,55,-1,57,59,-1,61,63,65,67,69,71,73,75,-1,77,79,81,83,85,87,89,91,93,95,97,99,-1,-1,-1,-1,-1,-1,-1,-1,-1,-1,-1,-1,-1,-1,-1,-1,-1,-1,-1,-1,-1,-1,-1,-1,-1,-1,-1,-1,-1,-1,-1,-1,-1,-1,-1,-1,-1,-1,-1,-1,-1,-1,-1,-1,-1,-1],"loss_changes":[2.3859132E2,3.1769714E0,1.07684765E1,6.3872643E0,1.1029968E0,3.2661781E0,5.9990563E0,1.0606346E0,1.5501112E0,2.6002502E-1,0E0,2.7268867E0,3.4666195E0,1.8551264E0,2.3319798E0,5.4906845E-2,2.424923E0,2.406942E0,1.6714683E0,7.8308105E-2,3.9098835E-1,1.8406639E0,1.9354563E0,0E0,1.0397644E0,2.4931676E0,1.2421235E0,5.4717684E0,7.858983E0,2.0772452E0,0E0,9.346186E-1,1.0480309E0,0E0,1.0582335E0,9.970634E-1,1.3943834E0,8.113022E-1,1.960556E0,1.0855875E0,4.417696E-1,1.8280182E0,0E0,1.3041134E0,2.3852253E0,9.0728295E-1,5.894499E-1,2.465463E0,4.7779455E0,1.694567E0,3.307507E0,2.3499212E0,4.80651E0,2.5733824E0,5.638819E0,0E0,0E0,0E0,0E0,0E0,0E0,0E0,0E0,0E0,0E0,0E0,0E0,0E0,0E0,0E0,0E0,0E0,0E0,0E0,0E0,0E0,0E0,0E0,0E0,0E0,0E0,0E0,0E0,0E0,0E0,0E0,0E0,0E0,0E0,0E0,0E0,0E0,0E0,0E0,0E0,0E0,0E0,0E0,0E0,0E0,0E0],"parents":[2147483647,0,0,1,1,2,2,3,3,4,4,5,5,6,6,7,7,8,8,9,9,11,11,12,12,13,13,14,14,15,15,16,16,17,17,18,18,19,19,20,20,21,21,22,22,24,24,25,25,26,26,27,27,28,28,29,29,31,31,32,32,34,34,35,35,36,36,37,37,38,38,39,39,40,40,41,41,43,43,44,44,45,45,46,46,47,47,48,48,49,49,50,50,51,51,52,52,53,53,54,54],"right_children":[2,4,6,8,10,12,14,16,18,20,-1,22,24,26,28,30,32,34,36,38,40,42,44,-1,46,48,50,52,54,56,-1,58,60,-1,62,64,66,68,70,72,74,76,-1,78,80,82,84,86,88,90,92,94,96,98,100,-1,-1,-1,-1,-1,-1,-1,-1,-1,-1,-1,-1,-1,-1,-1,-1,-1,-1,-1,-1,-1,-1,-1,-1,-1,-1,-1,-1,-1,-1,-1,-1,-1,-1,-1,-1,-1,-1,-1,-1,-1,-1,-1,-1,-1,-1],"split_conditions":[1E0,3E3,5E0,4.23858E3,1.345187E4,7.02965E3,2E0,1.69778E3,5.75722E3,7.81094E3,-3.7941788E-4,1E3,2.5E3,1E1,9.43268E3,7.8015E2,1.5E3,4.37783E3,6.43117E3,4.5E3,5E0,4.47939E3,3E0,3.4077704E-1,4E3,6.5E3,9E3,4.5E3,9E3,6.6241E2,-3.0003935E-1,3E0,3E0,1.5466335E-1,2E3,2.5E3,7.28915E3,5.62742E3,9.7772E2,6E3,5.5E3,2E0,3.9590698E-1,4E3,2.14575E3,3.5E3,4E0,3.5E3,5.72038E3,8.81486E3,4.34998E3,6.91848E3,3E0,1.113599E4,1.068293E4,-2.6289302E-1,3.567256E-2,-4.2087007E-2,-2.3096506E-1,-2.7160907E-1,-1.6571495E-1,-2.3425138E-2,-2.1088605E-1,2.1269675E-2,3.4802836E-1,-2.0829584E-1,1.0236332E-1,-2.4965717E-1,-1.3345829E-1,-6.962222E-2,-2.800309E-1,-1.6404593E-1,1.1276021E-1,-6.381671E-2,-2.3789884E-1,3.4892103E-1,7.375613E-2,1.3629836E-1,3.7310117E-1,-7.608774E-2,8.708814E-2,1.0935476E-1,-6.3031666E-2,1.4259177E-2,2.4172269E-1,5.301378E-2,-3.177993E-2,2.1505418E-1,-1.0172668E-2,-1.8154268E-1,2.4944827E-2,3.4966958E-1,-5.8606323E-2,7.6587684E-2,2.1353446E-1,-1.0192478E-1,1.0913575E-1,1.2003718E-1,3.2604912E-1,2.112774E-1,-2.706145E-1],"split_indices":[3,1,0,2,2,2,3,2,2,2,0,1,1,0,2,2,1,2,2,1,0,2,0,0,1,1,1,1,1,2,0,0,0,0,1,1,2,2,2,1,1,0,0,1,2,1,0,1,2,2,2,2,3,2,2,0,0,0,0,0,0,0,0,0,0,0,0,0,0,0,0,0,0,0,0,0,0,0,0,0,0,0,0,0,0,0,0,0,0,0,0,0,0,0,0,0,0,0,0,0,0],"split_type":[0,0,0,0,0,0,0,0,0,0,0,0,0,0,0,0,0,0,0,0,0,0,0,0,0,0,0,0,0,0,0,0,0,0,0,0,0,0,0,0,0,0,0,0,0,0,0,0,0,0,0,0,0,0,0,0,0,0,0,0,0,0,0,0,0,0,0,0,0,0,0,0,0,0,0,0,0,0,0,0,0,0,0,0,0,0,0,0,0,0,0,0,0,0,0,0,0,0,0,0,0],"sum_hessian":[9.103072E2,4.079283E2,5.0237885E2,1.183944E2,2.895339E2,1.8195178E2,3.2042706E2,9.8665184E1,1.9729221E1,2.8803235E2,1.5015807E0,1.511476E2,3.080419E1,1.9615562E2,1.24271454E2,3.3933453E1,6.473173E1,1.3598136E1,6.1310863E0,2.6944043E2,1.859191E1,1.5606937E1,1.3554066E2,1.1769364E1,1.9034824E1,1.6936287E2,2.6792744E1,9.186664E1,3.240482E1,1.1219457E1,2.2713997E1,1.4992598E1,4.973913E1,2.1364038E0,1.1461732E1,2.807378E0,3.323708E0,1.0196522E2,1.674752E2,3.7806838E0,1.4811226E1,1.1961887E1,3.6450503E0,2.5174143E1,1.10366516E2,1.14809675E1,7.5538564E0,1.3600201E2,3.3360867E1,1.5655967E1,1.1136777E1,5.2532772E1,3.9333862E1,2.4870342E1,7.534477E0,8.83296E0,2.3864963E0,1.289622E1,2.0963783E0,2.6432869E1,2.330626E1,4.5397897E0,6.921942E0,1.5685792E0,1.2387989E0,1.5724137E0,1.7512944E0,9.22242E1,9.74102E0,4.879738E0,1.6259547E2,2.6762617E0,1.1044221E0,2.4555466E0,1.23556795E1,2.1416945E0,9.820193E0,2.3293362E1,1.88078E0,7.9891367E0,1.0237738E2,8.352731E0,3.128237E0,1.3476754E0,6.2061806E0,4.559498E1,9.040703E1,1.3908009E1,1.9452858E1,1.084683E1,4.809136E0,1.1322979E0,1.0004479E1,3.5454052E1,1.707872E1,2.4693975E1,1.4639887E1,1.2006391E1,1.2863952E1,2.5406563E0,4.993821E0],"tree_param":{"num_deleted":"0","num_feature":"4","num_nodes":"101","size_leaf_vector":"1"}},{"base_weights":[-1.8613929E-1,-7.1559495E-1,1.6354473E-1,-5.582329E-1,-7.814858E-1,2.7186602E-1,5.22449E-2,-7.200994E-1,-2.1874875E-1,-7.937853E-1,-3.35166E-1,7.078453E-1,2.3766293E-1,3.7174113E-2,2.697654E-1,-6.278626E-1,-9.539549E-1,-3.2257044E-1,2.0572317E-1,-7.252002E-1,-8.4991664E-1,-5.933586E-1,1.3319862E-1,4.491125E-1,3.4993538E-1,1.9930606E-1,4.6639493E-1,-1.792205E-1,7.670187E-2,-2.517024E-1,-4.5919237E-1,-8.528636E-2,-3.0122358E-1,1.6610518E-1,-3.921512E-1,2.2983553E-1,-8.90183E-2,-7.372555E-1,1.5568084E-2,-4.0596297E-1,-2.5793633E-1,-1.1553693E-1,-2.4529074E-1,2.466148E-1,3.0142957E-1,2.7929527E-1,5.5211034E-2,6.520586E-1,4.274715E-2,1.2303334E-2,-9.2877024E-1,6.4178926E-1,5.1738888E-2,-1.487932E-1,5.2659404E-2,-3.2705225E-2,-1.3828577E-1,-1.4106518E-1,8.313828E-2,-2.4067554E-1,-1.9625522E-1,-2.1524136E-1,2.8779427E-2,-1.6627724E-1,1.0993547E-1,1.696941E-1,-1.01506665E-1,6.67311E-2,1.760881E-1,-6.959001E-2,6.2254995E-2,3.0080786E-1,1.254513E-1,-1.2224557E-1,2.2910398E-1,-3.1919435E-2,3.6979178E-1,-3.21847E-1,-1.2233511E-1,5.837873E-2,4.1982207E-1,-1.2343442E-1,2.2539193E-2],"categories":[],"categories_nodes":[],"categories_segments":[],"categories_sizes":[],"default_left":[0,0,0,0,0,0,0,0,0,0,0,0,0,0,0,0,0,0,0,0,0,0,0,0,0,0,0,0,0,0,0,0,0,0,0,0,0,0,0,0,0,0,0,0,0,0,0,0,0,0,0,0,0,0,0,0,0,0,0,0,0,0,0,0,0,0,0,0,0,0,0,0,0,0,0,0,0,0,0,0,0,0,0],"id":4,"left_children":[1,3,5,7,9,11,13,15,17,19,21,23,25,27,-1,29,31,33,35,37,39,41,-1,43,-1,45,47,49,51,-1,53,-1,-1,-1,55,-1,57,59,-1,61,-1,63,-1,65,-1,67,69,71,73,75,77,79,81,-1,-1,-1,-1,-1,-1,-1,-1,-1,-1,-1,-1,-1,-1,-1,-1,-1,-1,-1,-1,-1,-1,-1,-1,-1,-1,-1,-1,-1,-1],"loss_changes":[1.5636588E2,3.0462952E0,6.123225E0,5.482048E0,1.0198059E0,3.675291E0,3.1873393E0,8.906288E-1,1.5898898E0,2.5842285E-1,1.8754091E0,1.6409397E0,2.0171022E0,2.1431904E0,0E0,1.4826756E0,3.0558395E-1,1.9344549E0,1.2912297E0,1.0601692E0,1.730957E-1,5.963628E-1,0E0,1.2475765E0,0E0,2.3786802E0,2.630145E0,5.5743966E0,2.9460669E0,0E0,8.194165E-1,0E0,0E0,0E0,4.6947193E-1,0E0,9.326325E-1,5.551529E-2,0E0,7.701942E-1,0E0,8.848075E-1,0E0,2.256497E0,0E0,2.2016592E0,3.3456655E0,1.5018234E0,4.0008454E0,4.7450194E0,1.5537834E-1,2.7252421E0,2.234208E0,0E0,0E0,0E0,0E0,0E0,0E0,0E0,0E0,0E0,0E0,0E0,0E0,0E0,0E0,0E0,0E0,0E0,0E0,0E0,0E0,0E0,0E0,0E0,0E0,0E0,0E0,0E0,0E0,0E0,0E0],"parents":[2147483647,0,0,1,1,2,2,3,3,4,4,5,5,6,6,7,7,8,8,9,9,10,10,11,11,12,12,13,13,15,15,16,16,17,17,18,18,19,19,20,20,21,21,23,23,25,25,26,26,27,27,28,28,30,30,34,34,36,36,37,37,39,39,41,41,43,43,45,45,46,46,47,47,48,48,49,49,50,50,51,51,52,52],"right_children":[2,4,6,8,10,12,14,16,18,20,22,24,26,28,-1,30,32,34,36,38,40,42,-1,44,-1,46,48,50,52,-1,54,-1,-1,-1,56,-1,58,60,-1,62,-1,64,-1,66,-1,68,70,72,74,76,78,80,82,-1,-1,-1,-1,-1,-1,-1,-1,-1,-1,-1,-1,-1,-1,-1,-1,-1,-1,-1,-1,-1,-1,-1,-1,-1,-1,-1,-1,-1,-1],"split_conditions":[1E0,3E3,6E0,3.2882E3,1.2E1,1E3,5E0,2.5E3,5.75722E3,5E3,1.018665E4,4.47939E3,5E3,4.10799E3,2.697654E-1,1.69778E3,7.8015E2,3.36202E3,6.07441E3,9.13464E3,9.7772E2,1.3E1,1.3319862E-1,2E0,3.4993538E-1,3E3,6.11282E3,3.84655E3,4.34998E3,-2.517024E-1,5E0,-8.528636E-2,-3.0122358E-1,1.6610518E-1,1.5E3,2.2983553E-1,2.5E3,4E0,1.5568084E-2,6.5E3,-2.5793633E-1,6.57369E3,-2.4529074E-1,2.96284E3,3.0142957E-1,7.24129E3,4.10799E3,5.5E3,8.60704E3,3.77489E3,8E0,4.26962E3,4.69032E3,-1.487932E-1,5.2659404E-2,-3.2705225E-2,-1.3828577E-1,-1.4106518E-1,8.313828E-2,-2.4067554E-1,-1.9625522E-1,-2.1524136E-1,2.8779427E-2,-1.6627724E-1,1.0993547E-1,1.696941E-1,-1.01506665E-1,6.67311E-2,1.760881E-1,-6.959001E-2,6.2254995E-2,3.0080786E-1,1.254513E-1,-1.2224557E-1,2.2910398E-1,-3.1919435E-2,3.6979178E-1,-3.21847E-1,-1.2233511E-1,5.837873E-2,4.1982207E-1,-1.2343442E-1,2.2539193E-2],"split_indices":[3,1,0,2,0,1,3,1,2,1,2,2,1,2,0,2,2,2,2,2,2,0,0,3,0,1,2,2,2,0,0,0,0,0,1,0,1,0,0,1,0,2,0,2,0,2,2,1,2,2,0,2,2,0,0,0,0,0,0,0,0,0,0,0,0,0,0,0,0,0,0,0,0,0,0,0,0,0,0,0,0,0,0],"split_type":[0,0,0,0,0,0,0,0,0,0,0,0,0,0,0,0,0,0,0,0,0,0,0,0,0,0,0,0,0,0,0,0,0,0,0,0,0,0,0,0,0,0,0,0,0,0,0,0,0,0,0,0,0,0,0,0,0,0,0,0,0,0,0,0,0,0,0,0,0,0,0,0,0,0,0,0,0,0,0,0,0,0,0],"sum_hessian":[8.429397E2,3.34869E2,5.0807068E2,1.0162881E2,2.3324019E2,2.5674948E2,2.5132121E2,6.8057655E1,3.357115E1,2.262274E2,7.0127807E0,1.7244343E1,2.3950514E2,2.479531E2,3.3681135E0,5.1449768E1,1.660789E1,2.7166546E1,6.404605E0,1.0808338E2,1.1814402E2,5.4464445E0,1.5663364E0,1.2289977E1,4.9543657E0,2.067122E2,3.279295E1,3.7751045E1,2.1020204E2,2.1083145E1,3.0366625E1,1.621108E0,1.498678E1,1.4866929E0,2.5679853E1,1.6562566E0,4.748348E0,1.0648274E2,1.6006423E0,3.4860384E0,1.1465798E2,2.2237997E0,3.2226448E0,1.0065584E1,2.2243934E0,1.3232077E2,7.4391426E1,2.2425722E1,1.0367227E1,3.0851501E1,6.8995442E0,7.847539E0,2.023545E2,2.8909773E1,1.4568522E0,5.5255265E0,2.0154325E1,2.1870987E0,2.5612497E0,5.4883667E1,5.159907E1,1.8859619E0,1.6000767E0,1.08566E0,1.1381397E0,6.534707E0,3.5308766E0,1.1313564E2,1.9185127E1,2.5599537E1,4.879189E1,7.6580434E0,1.4767678E1,6.6493793E0,3.7178476E0,2.8948507E1,1.902994E0,4.575266E0,2.324278E0,5.7250857E0,2.1224535E0,8.930457E0,1.9342406E2],"tree_param":{"num_deleted":"0","num_feature":"4","num_nodes":"83","size_leaf_vector":"1"}},{"base_weights":[-1.4785515E-1,-6.316295E-1,1.1593669E-1,-4.7197422E-1,-7.0301527E-1,5.8351344E-1,9.8897316E-2,-6.36946E-1,-1.643588E-1,-7.2394556E-1,-3.8765478E-1,3.635947E-1,3.2316887E-1,2.4959965E-1,6.451502E-2,-5.3849214E-1,-9.077599E-1,-3.3110324E-1,6.489839E-2,-6.292504E-1,-7.779405E-1,-1.22881174E-1,-7.467282E-1,2.9974827E-1,1.5392043E-1,6.609607E-1,1.8963334E-1,-4.425244E-1,7.7896625E-2,-7.70506E-1,-3.7164065E-1,-7.3245786E-2,-2.904804E-1,-5.6806487E-1,-7.989288E-2,4.0922096E-1,-2.494663E-1,-7.0482665E-1,-3.9954248E-1,-9.2709795E-2,-8.039761E-1,-2.086312E-1,8.780477E-2,-2.5356144E-1,-4.6171397E-2,-8.764289E-2,2.2747508E-1,-1.792166E-1,9.246015E-1,-1.9745462E-1,2.3000254E-1,-9.561202E-1,1.3620335E-1,3.2090598E-1,6.935145E-2,-1.386914E-1,-2.6440373E-1,-4.1261446E-2,-1.4965352E-1,-6.6304584E-3,-2.313902E-1,2.0200963E-1,-1.14805214E-1,-5.1708985E-2,2.8838265E-1,1.2322839E-1,-1.2149216E-1,-2.3663294E-1,-1.6746555E-1,1.2309715E-1,-1.4067796E-1,-1.7225815E-1,5.328712E-2,-2.4588223E-1,-1.3594571E-1,1.9751301E-1,-4.082732E-2,9.352611E-2,-1.5194342E-1,1.576272E-1,4.0693575E-1,1.490723E-1,4.7747005E-2,-6.995273E-2,-3.244172E-1,-4.9352843E-2,2.2850154E-1,5.194642E-3,5.0402593E-2],"categories":[],"categories_nodes":[],"categories_segments":[],"categories_sizes":[],"default_left":[0,0,0,0,0,0,0,0,0,0,0,0,0,0,0,0,0,0,0,0,0,0,0,0,0,0,0,0,0,0,0,0,0,0,0,0,0,0,0,0,0,0,0,0,0,0,0,0,0,0,0,0,0,0,0,0,0,0,0,0,0,0,0,0,0,0,0,0,0,0,0,0,0,0,0,0,0,0,0,0,0,0,0,0,0,0,0,0,0],"id":5,"left_children":[1,3,5,7,9,11,13,15,17,19,21,23,-1,25,27,29,31,33,35,37,39,41,43,-1,45,47,49,51,53,55,57,-1,-1,59,61,63,65,67,69,71,73,-1,75,-1,-1,77,-1,-1,79,-1,81,83,85,-1,87,-1,-1,-1,-1,-1,-1,-1,-1,-1,-1,-1,-1,-1,-1,-1,-1,-1,-1,-1,-1,-1,-1,-1,-1,-1,-1,-1,-1,-1,-1,-1,-1,-1,-1],"loss_changes":[1.0125729E2,2.8586578E0,4.036993E0,4.4390793E0,9.827194E-1,1.5482216E0,2.5594997E0,1.0558262E0,1.2678242E0,4.2230988E-1,1.245472E0,1.6945671E0,0E0,2.1438794E0,2.7897682E0,1.4535589E0,3.2525253E-1,1.0879474E0,1.6785759E0,9.3349266E-1,1.8761978E0,1.1820318E0,2.0692039E-1,0E0,1.7615528E0,4.301665E0,2.9472594E0,3.2783294E0,3.2861173E0,2.0298767E-1,7.674494E-1,0E0,0E0,1.0518947E0,2.6309144E0,2.5190122E0,1.0118028E0,1.9176674E-1,1.2957962E0,7.700838E-1,2.0555115E-1,0E0,1.0708241E0,0E0,0E0,1.6955459E0,0E0,0E0,9.656992E-1,0E0,1.4093966E0,2.6733255E-1,1.2265931E0,0E0,2.0206873E0,0E0,0E0,0E0,0E0,0E0,0E0,0E0,0E0,0E0,0E0,0E0,0E0,0E0,0E0,0E0,0E0,0E0,0E0,0E0,0E0,0E0,0E0,0E0,0E0,0E0,0E0,0E0,0E0,0E0,0E0,0E0,0E0,0E0,0E0],"parents":[2147483647,0,0,1,1,2,2,3,3,4,4,5,5,6,6,7,7,8,8,9,9,10,10,11,11,13,13,14,14,15,15,16,16,17,17,18,18,19,19,20,20,21,21,22,22,24,24,25,25,26,26,27,27,28,28,29,29,30,30,33,33,34,34,35,35,36,36,37,37,38,38,39,39,40,40,42,42,45,45,48,48,50,50,51,51,52,52,54,54],"right_children":[2,4,6,8,10,12,14,16,18,20,22,24,-1,26,28,30,32,34,36,38,40,42,44,-1,46,48,50,52,54,56,58,-1,-1,60,62,64,66,68,70,72,74,-1,76,-1,-1,78,-1,-1,80,-1,82,84,86,-1,88,-1,-1,-1,-1,-1,-1,-1,-1,-1,-1,-1,-1,-1,-1,-1,-1,-1,-1,-1,-1,-1,-1,-1,-1,-1,-1,-1,-1,-1,-1,-1,-1,-1,-1],"split_conditions":[1E0,3E3,1E3,3.2882E3,8.0166E3,2E0,4E0,2.5E3,3E0,4.5E3,8.5E3,2E0,3.2316887E-1,2.45555E3,2.14575E3,1.69778E3,7.8015E2,4.32133E3,4E0,4.23858E3,9.7772E2,4.5E3,1.187961E4,2.9974827E-1,4.47939E3,1.5E3,2.67778E3,3.5E3,2.22264E3,7.2356E2,1.5E3,-7.3245786E-2,-2.904804E-1,1.5E3,4.60966E3,2.5E3,3.47069E3,4E0,4.34998E3,5.8544E2,1.1E1,-2.086312E-1,5E0,-2.5356144E-1,-4.6171397E-2,2.60896E3,2.2747508E-1,-1.792166E-1,2.16849E3,-1.9745462E-1,1.5E3,1.56647E3,6E3,3.2090598E-1,2E0,-1.386914E-1,-2.6440373E-1,-4.1261446E-2,-1.4965352E-1,-6.6304584E-3,-2.313902E-1,2.0200963E-1,-1.14805214E-1,-5.1708985E-2,2.8838265E-1,1.2322839E-1,-1.2149216E-1,-2.3663294E-1,-1.6746555E-1,1.2309715E-1,-1.4067796E-1,-1.7225815E-1,5.328712E-2,-2.4588223E-1,-1.3594571E-1,1.9751301E-1,-4.082732E-2,9.352611E-2,-1.5194342E-1,1.576272E-1,4.0693575E-1,1.490723E-1,4.7747005E-2,-6.995273E-2,-3.244172E-1,-4.9352843E-2,2.2850154E-1,5.194642E-3,5.0402593E-2],"split_indices":[3,1,1,2,2,3,0,1,0,1,1,0,0,2,2,2,2,2,0,2,2,1,2,0,2,1,2,1,2,2,1,0,0,1,2,1,2,0,2,2,0,0,0,0,0,2,0,0,2,0,1,2,1,0,3,0,0,0,0,0,0,0,0,0,0,0,0,0,0,0,0,0,0,0,0,0,0,0,0,0,0,0,0,0,0,0,0,0,0],"split_type":[0,0,0,0,0,0,0,0,0,0,0,0,0,0,0,0,0,0,0,0,0,0,0,0,0,0,0,0,0,0,0,0,0,0,0,0,0,0,0,0,0,0,0,0,0,0,0,0,0,0,0,0,0,0,0,0,0,0,0,0,0,0,0,0,0,0,0,0,0,0,0,0,0,0,0,0,0,0,0,0,0,0,0,0,0,0,0,0,0],"sum_hessian":[7.9188074E2,2.7893692E2,5.129438E2,8.853611E1,1.9040082E2,1.6866484E1,4.960773E2,5.6932858E1,3.1603252E1,1.7733554E2,1.3065282E1,1.287012E1,3.9963634E0,9.099113E1,4.0508618E2,4.394511E1,1.2987746E1,1.8038883E1,1.3564369E1,6.899224E1,1.083433E2,8.292658E0,4.772624E0,2.2585843E0,1.0611536E1,1.0301562E1,8.068956E1,9.591394E0,3.9549478E2,1.6869482E1,2.7075628E1,1.5060098E0,1.1481737E1,8.633636E0,9.405248E0,6.3297143E0,7.2346544E0,5.0356186E1,1.8636055E1,4.132812E0,1.0421049E2,1.611756E0,6.680902E0,3.7276762E0,1.0449479E0,8.191998E0,2.4195385E0,1.565164E0,8.736399E0,2.9718597E0,7.7717705E1,4.736155E0,4.8552394E0,2.317655E0,3.9317712E2,5.8298645E0,1.1039618E1,1.0265182E1,1.6810448E1,2.6428232E0,5.990813E0,2.3457723E0,7.059475E0,3.4173484E0,2.9123662E0,1.0662649E0,6.16839E0,2.9235424E1,2.1120762E1,1.0828593E0,1.7553196E1,1.0818812E0,3.050931E0,9.848611E1,5.724381E0,1.3359199E0,5.344982E0,4.324176E0,3.8678217E0,5.691859E0,3.0445397E0,1.5040416E1,6.2677288E1,1.1220582E0,3.6140969E0,3.7765372E0,1.0787022E0,2.581784E2,1.349987E2],"tree_param":{"num_deleted":"0","num_feature":"4","num_nodes":"89","size_leaf_vector":"1"}},{"base_weights":[-1.170122E-1,-5.493963E-1,8.322633E-2,-3.965124E-1,-6.2272775E-1,4.8442274E-1,6.94305E-2,-5.9216344E-1,-1.689771E-1,-6.329291E-1,-2.8749542E-2,3.0358827E-1,2.723589E-1,1.0760836E-1,-3.0087302E-2,-3.359121E-1,-7.19627E-1,-2.4851131E-1,1.9949722E-1,-5.531833E-1,-7.001203E-1,-1.8181288E-1,1.6833827E-1,2.6475826E-1,1.2653118E-1,9.4790734E-2,5.717351E-1,-7.6781213E-1,1.7001855E-3,-1.8986326E-1,-7.3886074E-2,-2.6648018E-1,-7.6122814E-1,-3.925515E-1,-5.123506E-2,2.449923E-1,-3.2923948E-2,-5.672484E-1,2.2140197E-2,-8.463026E-1,-6.2163484E-1,-6.734895E-2,1.9400707E-1,7.6924175E-2,3.6929813E-1,-1.6386E-1,8.024683E-1,-2.1956846E-2,-2.8834742E-1,2.6990655E-1,-5.1073477E-2,1.5264632E-2,-1.6933322E-1,-1.9564825E-1,9.238827E-2,-2.4884184E-1,-1.3979664E-1,-7.851339E-2,-2.3845968E-1,9.4334595E-3,-1.6902368E-1,-1.2361037E-1,6.477825E-2,-1.9381256E-1,-1.4248295E-1,-2.725079E-1,-8.461711E-2,-7.853955E-3,-1.92549E-1,7.040769E-2,-1.1520452E-1,2.6569871E-2,-1.8758167E-1,3.333658E-1,3.921186E-2,3.1347662E-1,1.9553436E-2,-3.3456914E-2,2.2170115E-1,-2.1617466E-1,-3.3071912E-3],"categories":[],"categories_nodes":[],"categories_segments":[],"categories_sizes":[],"default_left":[0,0,0,0,0,0,0,0,0,0,0,0,0,0,0,0,0,0,0,0,0,0,0,0,0,0,0,0,0,0,0,0,0,0,0,0,0,0,0,0,0,0,0,0,0,0,0,0,0,0,0,0,0,0,0,0,0,0,0,0,0,0,0,0,0,0,0,0,0,0,0,0,0,0,0,0,0,0,0,0,0],"id":6,"left_children":[1,3,5,7,9,11,13,15,17,19,21,23,-1,25,27,29,31,33,35,37,39,-1,-1,-1,41,43,45,47,49,-1,51,53,55,57,59,-1,61,63,-1,65,67,69,-1,71,73,-1,75,-1,-1,77,79,-1,-1,-1,-1,-1,-1,-1,-1,-1,-1,-1,-1,-1,-1,-1,-1,-1,-1,-1,-1,-1,-1,-1,-1,-1,-1,-1,-1,-1,-1],"loss_changes":[6.525232E1,2.427124E0,2.8202503E0,3.4645271E0,9.479294E-1,1.0241125E0,1.9015884E0,1.1514311E0,1.1754874E0,4.5236206E-1,1.6135639E0,1.2615606E0,0E0,2.0953746E0,3.268305E0,1.201666E0,3.1761646E-1,8.9042866E-1,1.0847524E0,7.1580124E-1,4.0647125E-1,0E0,0E0,0E0,1.1958973E0,1.7020025E0,2.8918483E0,7.0284986E-1,1.9183512E0,0E0,6.1970043E-1,1.056055E0,1.121254E-1,7.589841E-1,6.390678E-1,0E0,6.8508935E-1,2.3763275E-1,0E0,6.411667E-1,6.644745E-1,9.7289914E-1,0E0,2.7737627E0,3.6247232E0,0E0,1.4137244E0,0E0,0E0,4.069346E0,3.0293736E0,0E0,0E0,0E0,0E0,0E0,0E0,0E0,0E0,0E0,0E0,0E0,0E0,0E0,0E0,0E0,0E0,0E0,0E0,0E0,0E0,0E0,0E0,0E0,0E0,0E0,0E0,0E0,0E0,0E0,0E0],"parents":[2147483647,0,0,1,1,2,2,3,3,4,4,5,5,6,6,7,7,8,8,9,9,10,10,11,11,13,13,14,14,15,15,16,16,17,17,18,18,19,19,20,20,24,24,25,25,26,26,27,27,28,28,30,30,31,31,32,32,33,33,34,34,36,36,37,37,39,39,40,40,41,41,43,43,44,44,46,46,49,49,50,50],"right_children":[2,4,6,8,10,12,14,16,18,20,22,24,-1,26,28,30,32,34,36,38,40,-1,-1,-1,42,44,46,48,50,-1,52,54,56,58,60,-1,62,64,-1,66,68,70,-1,72,74,-1,76,-1,-1,78,80,-1,-1,-1,-1,-1,-1,-1,-1,-1,-1,-1,-1,-1,-1,-1,-1,-1,-1,-1,-1,-1,-1,-1,-1,-1,-1,-1,-1,-1,-1],"split_conditions":[1E0,3E3,1E3,2.85121E3,1.4E1,2E0,8E0,1.5E3,5.75722E3,5E3,1.018665E4,2E0,2.723589E-1,3E0,3.49134E3,1.69778E3,7.8015E2,3E0,5.8766E3,9.13464E3,6E3,-1.8181288E-1,1.6833827E-1,2.6475826E-1,4.47939E3,9.13464E3,4.37783E3,4.5E3,5.30366E3,-1.8986326E-1,2.67778E3,6.6241E2,2.43115E3,2.5E3,5.15812E3,2.449923E-1,6.3004E3,4E0,2.2140197E-2,8E0,9.7772E2,2.60896E3,1.9400707E-1,8.91039E3,9.43268E3,-1.6386E-1,7.81094E3,-2.1956846E-2,-2.8834742E-1,4.77716E3,5.55177E3,1.5264632E-2,-1.6933322E-1,-1.9564825E-1,9.238827E-2,-2.4884184E-1,-1.3979664E-1,-7.851339E-2,-2.3845968E-1,9.4334595E-3,-1.6902368E-1,-1.2361037E-1,6.477825E-2,-1.9381256E-1,-1.4248295E-1,-2.725079E-1,-8.461711E-2,-7.853955E-3,-1.92549E-1,7.040769E-2,-1.1520452E-1,2.6569871E-2,-1.8758167E-1,3.333658E-1,3.921186E-2,3.1347662E-1,1.9553436E-2,-3.3456914E-2,2.2170115E-1,-2.1617466E-1,-3.3071912E-3],"split_indices":[3,1,1,2,0,3,0,1,2,1,2,0,0,3,2,2,2,0,2,2,1,0,0,0,2,2,2,1,2,0,2,2,2,1,2,0,2,0,0,0,2,2,0,2,2,0,2,0,0,2,2,0,0,0,0,0,0,0,0,0,0,0,0,0,0,0,0,0,0,0,0,0,0,0,0,0,0,0,0,0,0],"split_type":[0,0,0,0,0,0,0,0,0,0,0,0,0,0,0,0,0,0,0,0,0,0,0,0,0,0,0,0,0,0,0,0,0,0,0,0,0,0,0,0,0,0,0,0,0,0,0,0,0,0,0,0,0,0,0,0,0,0,0,0,0,0,0,0,0,0,0,0,0,0,0,0,0,0,0,0,0,0,0,0,0],"sum_hessian":[7.521373E2,2.3751558E2,5.1462177E2,7.907163E1,1.5844395E2,1.5973816E1,4.9864795E2,4.165295E1,3.7418682E1,1.5570422E2,2.7397254E0,1.2396654E1,3.5771618E0,3.6033273E2,1.383152E2,1.5044007E1,2.6608942E1,3.1043575E1,6.375108E0,7.542232E1,8.0281906E1,1.3707812E0,1.368944E0,1.9701749E0,1.0426479E1,3.5182086E2,8.511881E0,4.7571273E0,1.3355807E2,6.3884163E0,8.655591E0,2.8601303E0,2.3748812E1,1.737064E1,1.3672936E1,1.0564115E0,5.3186965E0,7.386068E1,1.5616417E0,2.4628101E1,5.56538E1,8.229573E0,2.1969063E0,3.315236E2,2.0297276E1,1.2223217E0,7.289559E0,1.3359782E0,3.421149E0,2.128237E1,1.122757E2,7.615059E0,1.0405318E0,1.6302689E0,1.2298613E0,1.7820183E1,5.928629E0,1.4353214E1,3.0174253E0,1.2580666E1,1.0922707E0,1.8478539E0,3.4708424E0,3.6610413E1,3.7250267E1,2.1638397E1,2.989706E0,1.9009337E0,5.375287E1,4.344543E0,3.88503E0,3.2697635E2,4.5472293E0,4.0490417E0,1.6248234E1,5.171646E0,2.1179128E0,1.2158434E1,9.123936E0,5.37807E0,1.0689763E2],"tree_param":{"num_deleted":"0","num_feature":"4","num_nodes":"81","size_leaf_vector":"1"}},{"base_weights":[-9.201731E-2,-4.6847615E-1,5.894786E-2,-3.487924E-1,-5.572598E-1,4.076565E-1,4.7670975E-2,-6.243996E-1,-2.2114488E-1,-5.9123987E-1,-2.3584917E-1,-1.00015394E-1,5.1686317E-1,4.3723144E-2,2.805499E-1,-3.8646495E-1,-7.1978307E-1,1.689346E-1,-2.4917358E-1,-3.4430492E-1,-6.18904E-1,-3.7784502E-1,2.0957015E-1,1.0716446E-1,-1.6837645E-1,3.60021E-1,7.784618E-1,6.46996E-2,-1.5285383E-1,-2.1011256E-1,7.828833E-3,-3.5379937E-1,-2.3275653E-1,-3.4470356E-1,-6.887998E-2,-1.1736943E-1,-6.5393186E-1,-8.272434E-1,-5.5672276E-1,8.18102E-2,-5.3610754E-1,1.8498172E-1,-8.280009E-2,2.2053505E-1,2.121063E-1,6.352673E-2,2.6799235E-1,5.7240963E-2,9.6377933E-1,2.7827126E-1,-2.560654E-1,-9.186507E-2,7.199222E-2,-2.0209858E-1,4.3344952E-2,1.0891093E-1,-1.1601781E-1,2.0719545E-1,-5.749519E-2,-1.0523872E-1,1.8636078E-1,-1.7759377E-2,-2.368888E-1,-1.4791657E-1,-2.6934713E-1,8.915134E-2,-1.8090117E-1,-7.3376864E-2,1.2672357E-1,2.7107272E-2,-2.1574968E-1,1.9713075E-1,1.6860696E-2,1.2485503E-2,9.9566184E-2,3.957424E-1,9.889066E-2,-1.2634276E-1,1.7247137E-1,-2.7882344E-1,-5.200892E-2],"categories":[],"categories_nodes":[],"categories_segments":[],"categories_sizes":[],"default_left":[0,0,0,0,0,0,0,0,0,0,0,0,0,0,0,0,0,0,0,0,0,0,0,0,0,0,0,0,0,0,0,0,0,0,0,0,0,0,0,0,0,0,0,0,0,0,0,0,0,0,0,0,0,0,0,0,0,0,0,0,0,0,0,0,0,0,0,0,0,0,0,0,0,0,0,0,0,0,0,0,0],"id":7,"left_children":[1,3,5,7,9,11,13,15,17,19,21,23,25,27,-1,29,31,-1,33,35,37,39,41,-1,-1,43,45,47,49,-1,51,53,-1,55,57,59,61,63,65,67,69,-1,-1,-1,71,-1,-1,73,75,77,79,-1,-1,-1,-1,-1,-1,-1,-1,-1,-1,-1,-1,-1,-1,-1,-1,-1,-1,-1,-1,-1,-1,-1,-1,-1,-1,-1,-1,-1,-1],"loss_changes":[4.114835E1,2.007473E0,2.0149014E0,3.0606318E0,1.1415558E0,9.428294E-1,1.7188711E0,3.62566E-1,1.5403371E0,5.070076E-1,8.9370036E-1,9.7728676E-1,2.691307E-1,2.0761056E0,0E0,1.2727402E0,1.15288734E-1,0E0,1.0473094E0,8.278084E-1,7.5123215E-1,7.801894E-1,9.125905E-1,0E0,0E0,4.1174722E-1,8.1493855E-2,2.9857774E0,2.234342E0,0E0,4.764385E-1,7.925113E-1,0E0,1.3418818E0,2.2572474E0,1.7087582E0,3.7501454E-1,1.5920639E-2,3.1469383E0,4.879792E-1,9.4363976E-1,0E0,0E0,0E0,5.696635E-1,0E0,0E0,1.9204535E0,3.91716E-1,2.2896335E0,2.0520456E0,0E0,0E0,0E0,0E0,0E0,0E0,0E0,0E0,0E0,0E0,0E0,0E0,0E0,0E0,0E0,0E0,0E0,0E0,0E0,0E0,0E0,0E0,0E0,0E0,0E0,0E0,0E0,0E0,0E0,0E0],"parents":[2147483647,0,0,1,1,2,2,3,3,4,4,5,5,6,6,7,7,8,8,9,9,10,10,11,11,12,12,13,13,15,15,16,16,18,18,19,19,20,20,21,21,22,22,25,25,26,26,27,27,28,28,30,30,31,31,33,33,34,34,35,35,36,36,37,37,38,38,39,39,40,40,44,44,47,47,48,48,49,49,50,50],"right_children":[2,4,6,8,10,12,14,16,18,20,22,24,26,28,-1,30,32,-1,34,36,38,40,42,-1,-1,44,46,48,50,-1,52,54,-1,56,58,60,62,64,66,68,70,-1,-1,-1,72,-1,-1,74,76,78,80,-1,-1,-1,-1,-1,-1,-1,-1,-1,-1,-1,-1,-1,-1,-1,-1,-1,-1,-1,-1,-1,-1,-1,-1,-1,-1,-1,-1,-1,-1],"split_conditions":[1E0,3.5E3,1E3,2.03134E3,7.81094E3,1.85587E3,6E0,1.5E3,2.12001E3,1.63601E3,1.2E1,1.3103E3,2E0,1.1E1,2.805499E-1,1E3,7.8015E2,1.689346E-1,4.23858E3,4E0,2.63491E3,5E0,1E4,1.0716446E-1,-1.6837645E-1,2E0,3.27039E3,1.2E4,6.07441E3,-2.1011256E-1,1.69778E3,6.6241E2,-2.3275653E-1,1E3,4.37783E3,1.37928E3,9.3978E2,1.92443E3,2.7931E3,5.5E3,5.5E3,1.8498172E-1,-8.280009E-2,2.2053505E-1,2.34403E3,6.352673E-2,2.6799235E-1,1.039409E4,1.3E4,4.69032E3,6.86948E3,-9.186507E-2,7.199222E-2,-2.0209858E-1,4.3344952E-2,1.0891093E-1,-1.1601781E-1,2.0719545E-1,-5.749519E-2,-1.0523872E-1,1.8636078E-1,-1.7759377E-2,-2.368888E-1,-1.4791657E-1,-2.6934713E-1,8.915134E-2,-1.8090117E-1,-7.3376864E-2,1.2672357E-1,2.7107272E-2,-2.1574968E-1,1.9713075E-1,1.6860696E-2,1.2485503E-2,9.9566184E-2,3.957424E-1,9.889066E-2,-1.2634276E-1,1.7247137E-1,-2.7882344E-1,-5.200892E-2],"split_indices":[3,1,1,2,2,2,3,1,2,2,0,2,3,0,0,1,2,0,2,0,2,0,1,0,0,0,2,1,2,0,2,2,0,1,2,2,2,2,2,1,1,0,0,0,2,0,0,2,1,2,2,0,0,0,0,0,0,0,0,0,0,0,0,0,0,0,0,0,0,0,0,0,0,0,0,0,0,0,0,0,0],"split_type":[0,0,0,0,0,0,0,0,0,0,0,0,0,0,0,0,0,0,0,0,0,0,0,0,0,0,0,0,0,0,0,0,0,0,0,0,0,0,0,0,0,0,0,0,0,0,0,0,0,0,0,0,0,0,0,0,0,0,0,0,0,0,0,0,0,0,0,0,0,0,0,0,0,0,0,0,0,0,0,0,0],"sum_hessian":[7.2254675E2,2.0621338E2,5.163334E2,8.992273E1,1.1629065E2,1.5073532E1,5.0125986E2,2.7232567E1,6.269016E1,1.0441247E2,1.1878183E1,2.683383E0,1.2390149E1,5.000846E2,1.1752532E0,9.238574E0,1.7993994E1,1.5044365E0,6.1185722E1,1.18734865E1,9.253899E1,9.121907E0,2.7562761E0,1.4608067E0,1.2225764E0,9.231571E0,3.1585782E0,4.5247275E2,4.7611862E1,4.711398E0,4.5271754E0,3.3617158E0,1.46322775E1,3.939832E1,2.1787403E1,7.6474752E0,4.2260113E0,1.8442692E1,7.409629E1,2.4600499E0,6.661857E0,1.352591E0,1.403685E0,1.4880825E0,7.7434883E0,1.0114442E0,2.147134E0,4.498049E2,2.6678488E0,8.869005E0,3.8742855E1,1.7885512E0,2.7386243E0,1.833055E0,1.5286608E0,1.7800324E0,3.7618286E1,2.3880403E0,1.9399363E1,6.2098746E0,1.4376006E0,1.051918E0,3.1740932E0,4.608379E0,1.3834312E1,3.5308359E0,7.056546E1,1.4001609E0,1.0598891E0,1.6209623E0,5.0408945E0,1.1749744E0,6.568514E0,4.2668542E2,2.3119474E1,1.0174799E0,1.6503689E0,2.51628E0,6.3527255E0,3.1180747E0,3.5624783E1],"tree_param":{"num_deleted":"0","num_feature":"4","num_nodes":"81","size_leaf_vector":"1"}},{"base_weights":[-7.002712E-2,-3.898066E-1,4.33263E-2,-2.7991325E-1,-4.7627833E-1,1.2270171E-1,-1.4502717E-3,-5.5323946E-1,-1.6448371E-1,-5.357054E-1,-2.985886E-1,5.988402E-1,1.07134745E-1,-1.6688157E-2,2.914599E-1,-3.2848376E-1,-6.520741E-1,1.5018272E-1,-2.2258951E-1,-2.8562266E-1,-5.741359E-1,2.703557E-1,-3.7521842E-1,8.6621284E-2,2.878051E-1,-4.651511E-1,1.3582432E-1,2.5478452E-1,-3.240985E-2,3.078347E-1,1.21825404E-1,-1.8957688E-1,-3.4628998E-4,-3.0993146E-1,-2.133363E-1,3.7634915E-1,-4.2202872E-1,-3.4850755E-1,-4.549249E-2,-8.190478E-2,-5.9483975E-1,-7.527308E-1,-4.698693E-1,1.7053008E-2,1.2769693E-1,-4.6643826E-1,6.562892E-2,1.4357704E-1,-8.34064E-2,-1.4314589E-1,-7.8099555E-1,5.9403783E-1,1.0758665E-1,-1.01312004E-1,4.6164834E-1,-7.829159E-1,-1.2472696E-2,-1.2310223E-1,6.418046E-1,6.060553E-2,-9.234688E-2,-1.870175E-1,3.4533434E-2,1.1010323E-2,3.4586555E-1,-1.7253466E-1,-1.6078992E-2,-8.1673935E-2,-2.3590557E-1,1.4194107E-1,-4.328312E-2,-1.6133188E-1,8.069611E-2,-1.5169532E-2,-2.2188623E-1,-1.5289257E-1,-2.8124046E-1,-3.6904275E-2,-1.7605765E-1,-5.462678E-2,-2.2247696E-1,1.248566E-1,-1.8002743E-1,4.7183525E-2,-1.6392905E-1,-2.7844566E-1,-4.7006167E-2,2.679051E-1,-1.6904095E-1,-1.1668692E-1,4.0515468E-2,-8.349983E-2,2.9914066E-1,-2.8964534E-1,-7.045611E-2,2.425103E-1,-5.822095E-3,-1.6850337E-1,3.4514692E-1,3.0823854E-1,-9.182389E-2],"categories":[],"categories_nodes":[],"categories_segments":[],"categories_sizes":[],"default_left":[0,0,0,0,0,0,0,0,0,0,0,0,0,0,0,0,0,0,0,0,0,0,0,0,0,0,0,0,0,0,0,0,0,0,0,0,0,0,0,0,0,0,0,0,0,0,0,0,0,0,0,0,0,0,0,0,0,0,0,0,0,0,0,0,0,0,0,0,0,0,0,0,0,0,0,0,0,0,0,0,0,0,0,0,0,0,0,0,0,0,0,0,0,0,0,0,0,0,0,0,0],"id":8,"left_children":[1,3,5,7,9,11,13,15,17,19,21,23,25,27,29,31,33,35,37,39,41,43,45,47,-1,49,51,53,55,-1,57,-1,59,61,-1,63,65,67,69,71,73,75,77,-1,-1,79,81,-1,-1,83,85,87,89,91,-1,93,95,97,99,-1,-1,-1,-1,-1,-1,-1,-1,-1,-1,-1,-1,-1,-1,-1,-1,-1,-1,-1,-1,-1,-1,-1,-1,-1,-1,-1,-1,-1,-1,-1,-1,-1,-1,-1,-1,-1,-1,-1,-1,-1,-1],"loss_changes":[2.5425201E1,1.6108418E0,1.8426948E0,2.5355768E0,9.096527E-1,1.3217571E0,1.4886088E0,3.2550526E-1,1.1296514E0,5.534363E-1,1.3067384E0,9.697933E-1,3.0559666E0,1.3609482E0,1.9303713E0,9.393078E-1,1.0001421E-1,1.4455602E0,1.1217163E0,7.029843E-1,8.327637E-1,1.03887975E-1,1.0272298E0,6.2681496E-1,0E0,7.961873E-1,2.1920109E0,8.140619E0,4.4862194E0,0E0,1.9299722E0,0E0,4.065236E-1,6.189263E-1,0E0,1.9766042E0,1.5462428E-1,7.764232E-1,1.2132356E0,1.4808724E0,3.2348406E-1,5.023241E-1,1.668189E0,0E0,0E0,1.4811745E0,1.4459205E0,0E0,0E0,7.6989096E-1,2.4801493E-1,3.9291756E0,2.308886E0,3.1183357E0,0E0,5.496435E-1,1.687497E0,6.6334467E0,2.0745363E0,0E0,0E0,0E0,0E0,0E0,0E0,0E0,0E0,0E0,0E0,0E0,0E0,0E0,0E0,0E0,0E0,0E0,0E0,0E0,0E0,0E0,0E0,0E0,0E0,0E0,0E0,0E0,0E0,0E0,0E0,0E0,0E0,0E0,0E0,0E0,0E0,0E0,0E0,0E0,0E0,0E0,0E0],"parents":[2147483647,0,0,1,1,2,2,3,3,4,4,5,5,6,6,7,7,8,8,9,9,10,10,11,11,12,12,13,13,14,14,15,15,16,16,17,17,18,18,19,19,20,20,21,21,22,22,23,23,25,25,26,26,27,27,28,28,30,30,32,32,33,33,35,35,36,36,37,37,38,38,39,39,40,40,41,41,42,42,45,45,46,46,49,49,50,50,51,51,52,52,53,53,55,55,56,56,57,57,58,58],"right_children":[2,4,6,8,10,12,14,16,18,20,22,24,26,28,30,32,34,36,38,40,42,44,46,48,-1,50,52,54,56,-1,58,-1,60,62,-1,64,66,68,70,72,74,76,78,-1,-1,80,82,-1,-1,84,86,88,90,92,-1,94,96,98,100,-1,-1,-1,-1,-1,-1,-1,-1,-1,-1,-1,-1,-1,-1,-1,-1,-1,-1,-1,-1,-1,-1,-1,-1,-1,-1,-1,-1,-1,-1,-1,-1,-1,-1,-1,-1,-1,-1,-1,-1,-1,-1],"split_conditions":[1E0,3.5E3,5E0,2.03134E3,5.62742E3,1.48972E3,4E0,1.5E3,2.47598E3,1.63601E3,5.9145E3,1.15466E3,2.12001E3,2.81487E3,3E3,1E3,7.8015E2,4E0,4.23858E3,4E0,4E0,7E0,1.2E1,9.7772E2,2.878051E-1,4E0,2.45555E3,2.63491E3,3.05512E3,3.078347E-1,8.5E3,-1.8957688E-1,1.85587E3,6.6241E2,-2.133363E-1,3E0,3E3,3.9643E3,4.37783E3,9.3978E2,9.3978E2,3.1172E3,4.5E3,1.7053008E-2,1.2769693E-1,6.5E3,1.1E4,1.4357704E-1,-8.34064E-2,2.00698E3,3.5E3,3.5E3,2.75333E3,6.5E3,4.6164834E-1,4.5E3,3.1172E3,1.187961E4,1.039409E4,6.060553E-2,-9.234688E-2,-1.870175E-1,3.4533434E-2,1.1010323E-2,3.4586555E-1,-1.7253466E-1,-1.6078992E-2,-8.1673935E-2,-2.3590557E-1,1.4194107E-1,-4.328312E-2,-1.6133188E-1,8.069611E-2,-1.5169532E-2,-2.2188623E-1,-1.5289257E-1,-2.8124046E-1,-3.6904275E-2,-1.7605765E-1,-5.462678E-2,-2.2247696E-1,1.248566E-1,-1.8002743E-1,4.7183525E-2,-1.6392905E-1,-2.7844566E-1,-4.7006167E-2,2.679051E-1,-1.6904095E-1,-1.1668692E-1,4.0515468E-2,-8.349983E-2,2.9914066E-1,-2.8964534E-1,-7.045611E-2,2.425103E-1,-5.822095E-3,-1.6850337E-1,3.4514692E-1,3.0823854E-1,-9.182389E-2],"split_indices":[3,1,0,2,2,2,3,1,2,2,2,2,2,2,1,1,2,0,2,0,0,0,0,2,0,0,2,2,2,0,1,0,2,2,0,0,1,2,2,2,2,2,1,0,0,1,1,0,0,2,1,1,2,1,0,1,2,2,2,0,0,0,0,0,0,0,0,0,0,0,0,0,0,0,0,0,0,0,0,0,0,0,0,0,0,0,0,0,0,0,0,0,0,0,0,0,0,0,0,0,0],"split_type":[0,0,0,0,0,0,0,0,0,0,0,0,0,0,0,0,0,0,0,0,0,0,0,0,0,0,0,0,0,0,0,0,0,0,0,0,0,0,0,0,0,0,0,0,0,0,0,0,0,0,0,0,0,0,0,0,0,0,0,0,0,0,0,0,0,0,0,0,0,0,0,0,0,0,0,0,0,0,0,0,0,0,0,0,0,0,0,0,0,0,0,0,0,0,0,0,0,0,0,0,0],"sum_hessian":[6.999557E2,1.8254425E2,5.1741144E2,8.225141E1,1.0029284E2,1.8598161E2,3.3142984E2,2.3295944E1,5.8955467E1,7.364723E1,2.664561E1,4.701792E0,1.8127982E2,3.1593707E2,1.5492774E1,8.435863E0,1.4860081E1,8.942664E0,5.0012802E1,1.0933132E1,6.2714096E1,2.862758E0,2.3782852E1,2.4545705E0,2.2472212E0,7.9277472E0,1.7335208E2,1.6462727E1,2.9947433E2,1.9591361E0,1.3533638E1,3.901882E0,4.533981E0,3.1068106E0,1.175327E1,6.6546903E0,2.2879744E0,2.8664276E1,2.1348526E1,7.353434E0,3.5796986E0,2.0824755E1,4.1889343E1,1.7806649E0,1.0820929E0,1.9657324E1,4.12553E0,1.0323576E0,1.4222128E0,4.645178E0,3.2825692E0,8.899678E0,1.644524E2,1.3609562E1,2.8531644E0,6.7593403E0,2.92715E2,9.718945E0,3.8146937E0,2.9412115E0,1.5927691E0,1.519532E0,1.5872785E0,5.358295E0,1.2963952E0,1.2200515E0,1.067923E0,2.5793505E1,2.8707707E0,2.809384E0,1.8539143E1,2.966655E0,4.386779E0,1.0356468E0,2.5440516E0,1.0615268E1,1.0209488E1,1.108263E1,3.0806711E1,1.0484323E1,9.173E0,2.947987E0,1.1775426E0,3.0116627E0,1.6335151E0,2.2625673E0,1.020002E0,7.2543993E0,1.6452788E0,7.9296045E0,1.565228E2,1.2363698E1,1.2458639E0,4.499012E0,2.2603285E0,1.4839025E0,2.912311E2,7.645211E0,2.0737329E0,2.651819E0,1.1628746E0],"tree_param":{"num_deleted":"0","num_feature":"4","num_nodes":"101","size_leaf_vector":"1"}},{"base_weights":[-5.4580186E-2,-3.2205847E-1,3.1758506E-2,-3.3172166E-1,1.4396572E-1,2.1115503E-1,1.7431678E-2,-1.7454611E-1,-3.8977036E-1,1.5764175E-1,2.8685868E-1,7.293877E-1,1.2046184E-2,-3.8332555E-1,-2.5875269E-2,-6.2737423E-1,-3.1777963E-1,-4.630951E-2,3.9374545E-1,-7.5293053E-3,3.4776193E-1,-3.71136E-1,2.1498127E-2,-5.020909E-1,-2.4172074E-1,3.0259386E-1,-1.1892696E-1,-6.9464636E-1,-8.6826295E-2,-7.1541645E-2,-3.8396376E-1,2.0225655E-1,-1.2751317E-1,5.0064254E-1,-2.0644395E-1,-5.462228E-1,2.1271639E-1,7.067022E-1,1.3182485E-2,-3.6361713E-2,-2.0827197E-1,9.244688E-2,-1.3668421E-1,-1.4948986E-1,-6.2175654E-3,-1.0612387E-1,-2.3945388E-1,1.9329081E-1,-2.0657544E-1,3.199591E-2,-1.3780773E-1,-1.0435037E-1,-2.1401738E-1,1.6983254E-2,-1.5263008E-1,2.1425237E-1,8.924571E-2,-5.617707E-3,-9.152308E-2,-7.049482E-2,-2.8875577E-1,3.0840335E-2,2.4576914E-1,-7.89909E-3,3.0720158E-2],"categories":[],"categories_nodes":[],"categories_segments":[],"categories_sizes":[],"default_left":[0,0,0,0,0,0,0,0,0,0,0,0,0,0,0,0,0,0,0,0,0,0,0,0,0,0,0,0,0,0,0,0,0,0,0,0,0,0,0,0,0,0,0,0,0,0,0,0,0,0,0,0,0,0,0,0,0,0,0,0,0,0,0,0,0],"id":9,"left_children":[1,3,5,7,-1,9,11,13,15,17,-1,19,21,23,25,27,29,31,33,-1,-1,35,37,39,41,-1,43,45,47,49,51,-1,53,55,57,59,-1,61,63,-1,-1,-1,-1,-1,-1,-1,-1,-1,-1,-1,-1,-1,-1,-1,-1,-1,-1,-1,-1,-1,-1,-1,-1,-1,-1],"loss_changes":[1.5790941E1,1.4520664E0,1.3263788E0,1.4414349E0,0E0,1.3715421E0,1.8328521E0,1.4313296E0,1.8534241E0,1.7912635E0,0E0,1.193043E0,1.7382121E0,2.0220709E-1,2.8339128E0,9.171324E-1,1.506567E0,1.2941401E0,1.2049708E0,0E0,0E0,2.5726862E0,2.652579E0,6.13724E-1,1.3994102E0,0E0,9.8664796E-1,5.563059E-1,2.2553463E0,1.5119609E0,6.3212776E-1,0E0,1.3905959E0,4.324553E-1,5.5458263E-2,1.1353595E0,0E0,2.9515266E-1,1.6334349E0,0E0,0E0,0E0,0E0,0E0,0E0,0E0,0E0,0E0,0E0,0E0,0E0,0E0,0E0,0E0,0E0,0E0,0E0,0E0,0E0,0E0,0E0,0E0,0E0,0E0,0E0],"parents":[2147483647,0,0,1,1,2,2,3,3,5,5,6,6,7,7,8,8,9,9,11,11,12,12,13,13,14,14,15,15,16,16,17,17,18,18,21,21,22,22,23,23,24,24,26,26,27,27,28,28,29,29,30,30,32,32,33,33,34,34,35,35,37,37,38,38],"right_children":[2,4,6,8,-1,10,12,14,16,18,-1,20,22,24,26,28,30,32,34,-1,-1,36,38,40,42,-1,44,46,48,50,52,-1,54,56,58,60,-1,62,64,-1,-1,-1,-1,-1,-1,-1,-1,-1,-1,-1,-1,-1,-1,-1,-1,-1,-1,-1,-1,-1,-1,-1,-1,-1,-1],"split_conditions":[1E0,1.345187E4,3E0,2.5E3,1.4396572E-1,4.5E3,1.37928E3,2.38664E3,3E0,4.34998E3,2.8685868E-1,1.10564E3,2.12001E3,1.69778E3,2.47598E3,5.62742E3,3.5E3,2E0,3E3,-7.5293053E-3,3.4776193E-1,6E3,2.26854E3,7.2356E2,1.85587E3,3.0259386E-1,2.85121E3,1.54035E3,6.38112E3,5E0,1E4,2.0225655E-1,3.66593E3,1.5E3,5.07868E3,1.94549E3,2.1271639E-1,2.16849E3,2E0,-3.6361713E-2,-2.0827197E-1,9.244688E-2,-1.3668421E-1,-1.4948986E-1,-6.2175654E-3,-1.0612387E-1,-2.3945388E-1,1.9329081E-1,-2.0657544E-1,3.199591E-2,-1.3780773E-1,-1.0435037E-1,-2.1401738E-1,1.6983254E-2,-1.5263008E-1,2.1425237E-1,8.924571E-2,-5.617707E-3,-9.152308E-2,-7.049482E-2,-2.8875577E-1,3.0840335E-2,2.4576914E-1,-7.89909E-3,3.0720158E-2],"split_indices":[3,2,0,1,0,1,2,2,0,2,0,2,2,2,2,2,1,0,1,0,0,1,2,2,2,0,2,2,2,0,1,0,2,1,2,2,0,2,3,0,0,0,0,0,0,0,0,0,0,0,0,0,0,0,0,0,0,0,0,0,0,0,0,0,0],"split_type":[0,0,0,0,0,0,0,0,0,0,0,0,0,0,0,0,0,0,0,0,0,0,0,0,0,0,0,0,0,0,0,0,0,0,0,0,0,0,0,0,0,0,0,0,0,0,0,0,0,0,0,0,0,0,0,0,0,0,0,0,0,0,0,0,0],"sum_hessian":[6.823334E2,1.658373E2,5.164961E2,1.6444217E2,1.3951256E0,3.7181488E1,4.793146E2,4.5432846E1,1.1900932E2,3.582025E1,1.3612363E0,2.5892034E0,4.767254E2,1.8239977E1,2.719287E1,2.5879606E1,9.3129715E1,1.9650017E1,1.6170233E1,1.2814353E0,1.3077681E0,1.0555111E1,4.661703E2,8.535475E0,9.704503E0,1.4320561E0,2.5760813E1,2.2761784E1,3.1178222E0,2.016962E1,7.29601E1,1.2506757E0,1.8399342E1,1.3866407E1,2.3038256E0,9.508257E0,1.0468544E0,4.582594E0,4.615877E2,3.4089377E0,5.1265373E0,2.5943203E0,7.110183E0,4.459325E0,2.1301489E1,6.3313875E0,1.6430397E1,1.3756837E0,1.7421384E0,1.4316468E1,5.853152E0,6.760189E1,5.358204E0,1.2981516E1,5.4178257E0,5.5341964E0,8.3322115E0,1.2033887E0,1.1004368E0,6.335809E0,3.1724474E0,1.020339E0,3.562255E0,3.2039597E2,1.4119173E2],"tree_param":{"num_deleted":"0","num_feature":"4","num_nodes":"65","size_leaf_vector":"1"}},{"base_weights":[-4.0628206E-2,-2.5839484E-1,2.425647E-2,-2.7540755E-1,2.2363132E-1,6.909517E-2,-2.1189237E-2,-3.7468888E-2,-3.088717E-1,6.42661E-1,-1.2576333E-1,5.9833366E-2,2.3044616E-1,1.301188E-1,-6.1630964E-2,-3.6866271E-1,9.902773E-2,-4.472058E-1,-2.5080222E-1,3.2635504E-1,-9.953985E-4,2.3466913E-2,2.1335404E-1,3.082394E-2,1.0560559E0,-9.8052554E-2,1.1911806E-1,-2.9609544E-2,-5.091379E-1,1.360022E-2,3.217799E-1,-5.4682285E-1,-8.574867E-2,-9.1367126E-2,-3.240071E-1,5.0456222E-2,-2.714397E-1,1.6093677E-1,2.1720769E-1,8.3563864E-2,-2.9625311E-1,4.5224023E-1,5.73151E-2,-1.3684653E-1,1.7340183E-1,5.081644E-1,-9.469678E-2,-1.8549675E-1,-4.142506E-2,5.112413E-2,-2.0140557E-1,2.162941E-1,-2.3880057E-2,-8.356643E-2,-1.9226769E-1,4.6908632E-2,-2.08193E-1,3.4706898E-2,-8.225703E-2,-1.0722078E-1,-2.9306583E-2,2.0230494E-2,-1.00280136E-1,1.1096655E-1,-1.4308564E-1,9.4212696E-2,-3.4947295E-3,2.0099971E-3,1.9655652E-1,-4.667501E-2,1.8282317E-1,9.296093E-2,-1.7624846E-1,1.67754E-2,3.8418588E-1,6.069492E-3,-2.2636276E-1],"categories":[],"categories_nodes":[],"categories_segments":[],"categories_sizes":[],"default_left":[0,0,0,0,0,0,0,0,0,0,0,0,0,0,0,0,0,0,0,0,0,0,0,0,0,0,0,0,0,0,0,0,0,0,0,0,0,0,0,0,0,0,0,0,0,0,0,0,0,0,0,0,0,0,0,0,0,0,0,0,0,0,0,0,0,0,0,0,0,0,0,0,0,0,0,0,0],"id":10,"left_children":[1,3,5,7,9,11,13,15,17,19,-1,21,-1,23,25,27,29,31,33,-1,-1,35,37,39,41,43,45,-1,47,49,51,53,55,57,59,61,63,65,-1,67,-1,-1,-1,69,71,73,75,-1,-1,-1,-1,-1,-1,-1,-1,-1,-1,-1,-1,-1,-1,-1,-1,-1,-1,-1,-1,-1,-1,-1,-1,-1,-1,-1,-1,-1,-1],"loss_changes":[9.449869E0,1.3204632E0,1.0526046E0,1.1726398E0,1.8277693E0,1.6367002E0,1.580344E0,9.1695553E-1,9.341316E-1,1.1243373E0,0E0,1.4330344E0,0E0,4.9795723E0,1.3509358E0,1.7333889E-1,2.7307147E-1,1.2937732E0,1.0677004E0,0E0,0E0,1.6801296E0,1.2006288E0,2.782093E0,1.7618837E0,1.8125609E0,2.9237666E0,0E0,6.1987102E-2,1.3584968E0,6.979119E-1,5.533838E-1,1.4677578E0,1.204342E0,4.490962E-1,1.2810041E0,2.5107756E0,1.2168152E0,0E0,2.1358771E0,0E0,0E0,0E0,2.1807973E0,2.4334111E0,4.266432E0,1.7709925E0,0E0,0E0,0E0,0E0,0E0,0E0,0E0,0E0,0E0,0E0,0E0,0E0,0E0,0E0,0E0,0E0,0E0,0E0,0E0,0E0,0E0,0E0,0E0,0E0,0E0,0E0,0E0,0E0,0E0,0E0],"parents":[2147483647,0,0,1,1,2,2,3,3,4,4,5,5,6,6,7,7,8,8,9,9,11,11,13,13,14,14,15,15,16,16,17,17,18,18,21,21,22,22,23,23,24,24,25,25,26,26,28,28,29,29,30,30,31,31,32,32,33,33,34,34,35,35,36,36,37,37,39,39,43,43,44,44,45,45,46,46],"right_children":[2,4,6,8,10,12,14,16,18,20,-1,22,-1,24,26,28,30,32,34,-1,-1,36,38,40,42,44,46,-1,48,50,52,54,56,58,60,62,64,66,-1,68,-1,-1,-1,70,72,74,76,-1,-1,-1,-1,-1,-1,-1,-1,-1,-1,-1,-1,-1,-1,-1,-1,-1,-1,-1,-1,-1,-1,-1,-1,-1,-1,-1,-1,-1,-1],"split_conditions":[1E0,9.78526E3,6E0,1.5E3,8.5E3,3E0,3.5E3,1.80326E3,3E0,1.113599E4,-1.2576333E-1,4.5E3,2.3044616E-1,8.91039E3,3E0,7.2356E2,4.34998E3,4.32133E3,3.5E3,3.2635504E-1,-9.953985E-4,4E3,2E0,8.43814E3,9.78526E3,1.039409E4,7.66163E3,-2.9609544E-2,1.69778E3,3.70753E3,4.53681E3,1.54035E3,6.38112E3,4E0,6.80432E3,9.01575E3,3.7529E3,5.5E3,2.1720769E-1,7.51018E3,-2.9625311E-1,4.5224023E-1,5.73151E-2,1.25E4,1.4E1,6.71467E3,1.1E4,-1.8549675E-1,-4.142506E-2,5.112413E-2,-2.0140557E-1,2.162941E-1,-2.3880057E-2,-8.356643E-2,-1.9226769E-1,4.6908632E-2,-2.08193E-1,3.4706898E-2,-8.225703E-2,-1.0722078E-1,-2.9306583E-2,2.0230494E-2,-1.00280136E-1,1.1096655E-1,-1.4308564E-1,9.4212696E-2,-3.4947295E-3,2.0099971E-3,1.9655652E-1,-4.667501E-2,1.8282317E-1,9.296093E-2,-1.7624846E-1,1.67754E-2,3.8418588E-1,6.069492E-3,-2.2636276E-1],"split_indices":[3,2,0,1,1,3,1,2,0,2,0,1,0,2,3,2,2,2,1,0,0,1,3,2,2,2,2,0,2,2,2,2,2,0,2,2,2,1,0,2,0,0,0,1,0,2,1,0,0,0,0,0,0,0,0,0,0,0,0,0,0,0,0,0,0,0,0,0,0,0,0,0,0,0,0,0,0],"split_type":[0,0,0,0,0,0,0,0,0,0,0,0,0,0,0,0,0,0,0,0,0,0,0,0,0,0,0,0,0,0,0,0,0,0,0,0,0,0,0,0,0,0,0,0,0,0,0,0,0,0,0,0,0,0,0,0,0,0,0,0,0,0,0,0,0,0,0,0,0,0,0,0,0,0,0,0,0],"sum_hessian":[6.6735034E2,1.5251053E2,5.1483984E2,1.4772533E2,4.785197E0,2.5888867E2,2.5595116E2,1.8475985E1,1.2924934E2,2.8970616E0,1.8881352E0,2.565749E2,2.313762E0,5.351469E1,2.0243646E2,4.895852E0,1.35801325E1,3.6233074E1,9.3016266E1,1.310128E0,1.5869336E0,2.0836873E2,4.8206173E1,4.9264946E1,4.2497435E0,1.6886673E2,3.356974E1,2.2583587E0,2.6374936E0,1.0582646E1,2.9974864E0,2.8002735E1,8.230338E0,2.9976864E1,6.3039406E1,1.916575E2,1.6711231E1,4.4911438E1,3.2947333E0,4.771187E1,1.5530756E0,2.304429E0,1.9453143E0,1.4818521E2,2.0681505E1,1.1417818E1,2.2151924E1,1.5229616E0,1.114532E0,9.222453E0,1.3601934E0,1.1036133E0,1.8938732E0,8.298413E0,1.9704323E1,6.418369E0,1.8119694E0,1.4228984E1,1.574788E1,5.4428722E1,8.6106825E0,1.8434656E2,7.310935E0,3.8613997E0,1.2849833E1,2.3364521E1,2.1546917E1,4.2948494E1,4.7633767E0,1.4532788E2,2.8573437E0,1.803895E1,2.642555E0,7.87794E0,3.5398781E0,1.9691502E1,2.460422E0],"tree_param":{"num_deleted":"0","num_feature":"4","num_nodes":"77","size_leaf_vector":"1"}},{"base_weights":[-3.0235332E-2,-2.0402472E-1,1.8366165E-2,-3.3144256E-1,-1.4949057E-1,1.5278805E-2,2.3314016E-1,-2.3556626E-1,-5.764328E-1,-6.3972056E-2,-3.0718908E-1,2.0198816E-2,-6.479906E-1,-3.1791827E-1,2.1115497E-1,-1.4615797E-2,-6.258445E-1,3.4219867E-1,-1.109194E-1,-6.1757094E-1,-1.8058954E-1,1.332832E-2,3.6085552E-1,-2.3525608E-1,-4.9697325E-2,-1.3900633E-1,-3.9427045E-1,-3.8288897E-1,-2.4281302E-1,1.8307388E-2,2.7866808E-1,-2.3954922E-1,-5.741107E-2,-7.728953E-1,1.9538745E-2,1.3165942E-1,-3.1379604E-1,3.1322364E-2,-1.2197207E-1,7.484031E-1,-4.246317E-1,-1.239799E-1,2.1373983E-2,-1.528947E-1,-4.4068914E-2,-1.9965611E-1,-3.3919506E-2,1.7130034E-1,-1.400991E-1,-2.4717694E-2,1.155954E-1,-4.515233E-3,-2.6340201E-1,-6.276556E-2,3.564478E-1,-2.3779139E-1,-4.634926E-2,8.037041E-3,2.6712406E-1,-8.272383E-2,6.36113E-2,7.240212E-2,3.597772E-1,7.279186E-2,-2.3572855E-1],"categories":[],"categories_nodes":[],"categories_segments":[],"categories_sizes":[],"default_left":[0,0,0,0,0,0,0,0,0,0,0,0,0,0,0,0,0,0,0,0,0,0,0,0,0,0,0,0,0,0,0,0,0,0,0,0,0,0,0,0,0,0,0,0,0,0,0,0,0,0,0,0,0,0,0,0,0,0,0,0,0,0,0,0,0],"id":11,"left_children":[1,3,5,7,9,11,-1,13,15,17,19,21,23,25,-1,-1,27,29,31,33,35,37,39,-1,-1,41,43,45,-1,47,-1,-1,49,51,-1,53,55,57,59,61,63,-1,-1,-1,-1,-1,-1,-1,-1,-1,-1,-1,-1,-1,-1,-1,-1,-1,-1,-1,-1,-1,-1,-1,-1],"loss_changes":[5.545904E0,9.474344E-1,1.1914562E0,8.550048E-1,1.3599477E0,1.6858968E0,0E0,2.700007E0,2.6085806E-1,1.3268309E0,1.2915211E0,1.1883881E0,1.2003183E-1,3.5660434E-1,0E0,0E0,1.4190269E-1,1.3602782E0,2.211053E0,1.1034544E0,1.1549788E0,1.2229921E0,3.37423E0,0E0,0E0,6.379677E-1,5.120735E-1,4.0199858E-1,0E0,1.7928429E0,0E0,0E0,6.7313135E-1,6.3745785E-1,0E0,3.385763E0,1.3317071E0,1.7001641E0,3.0880914E0,1.3303382E0,1.1437376E0,0E0,0E0,0E0,0E0,0E0,0E0,0E0,0E0,0E0,0E0,0E0,0E0,0E0,0E0,0E0,0E0,0E0,0E0,0E0,0E0,0E0,0E0,0E0,0E0],"parents":[2147483647,0,0,1,1,2,2,3,3,4,4,5,5,7,7,8,8,9,9,10,10,11,11,12,12,13,13,16,16,17,17,18,18,19,19,20,20,21,21,22,22,25,25,26,26,27,27,29,29,32,32,33,33,35,35,36,36,37,37,38,38,39,39,40,40],"right_children":[2,4,6,8,10,12,-1,14,16,18,20,22,24,26,-1,-1,28,30,32,34,36,38,40,-1,-1,42,44,46,-1,48,-1,-1,50,52,-1,54,56,58,60,62,64,-1,-1,-1,-1,-1,-1,-1,-1,-1,-1,-1,-1,-1,-1,-1,-1,-1,-1,-1,-1,-1,-1,-1,-1],"split_conditions":[1E0,2.43115E3,1.6E4,4E0,5E3,1.35E4,2.3314016E-1,6.5E3,8.9047E2,2.70105E3,6E3,1.345187E4,1.5E1,1.5E3,2.1115497E-1,-1.4615797E-2,4.5E3,2.63491E3,2.85121E3,8E0,4.19247E3,1E1,9E3,-2.3525608E-1,-4.9697325E-2,1E3,3E0,3E3,-2.4281302E-1,2.50227E3,2.7866808E-1,-2.3954922E-1,9.13464E3,2.94193E3,1.9538745E-2,3.89357E3,5.05766E3,1.2E4,1.3E1,6E3,1.4E1,-1.239799E-1,2.1373983E-2,-1.528947E-1,-4.4068914E-2,-1.9965611E-1,-3.3919506E-2,1.7130034E-1,-1.400991E-1,-2.4717694E-2,1.155954E-1,-4.515233E-3,-2.6340201E-1,-6.276556E-2,3.564478E-1,-2.3779139E-1,-4.634926E-2,8.037041E-3,2.6712406E-1,-8.272383E-2,6.36113E-2,7.240212E-2,3.597772E-1,7.279186E-2,-2.3572855E-1],"split_indices":[3,2,1,0,1,1,0,1,2,2,1,2,0,1,0,0,1,2,2,0,2,0,1,0,0,1,0,1,0,2,0,0,2,2,0,2,2,1,0,1,0,0,0,0,0,0,0,0,0,0,0,0,0,0,0,0,0,0,0,0,0,0,0,0,0],"split_type":[0,0,0,0,0,0,0,0,0,0,0,0,0,0,0,0,0,0,0,0,0,0,0,0,0,0,0,0,0,0,0,0,0,0,0,0,0,0,0,0,0,0,0,0,0,0,0,0,0,0,0,0,0,0,0,0,0,0,0,0,0,0,0,0,0],"sum_hessian":[6.551543E2,1.4247911E2,5.126752E2,4.1181564E1,1.0129755E2,5.116136E2,1.0615752E0,3.1008144E1,1.0173422E1,6.6591324E1,3.470623E1,5.088089E2,2.8047044E0,2.911722E1,1.8909237E0,1.0410504E0,9.132372E0,6.247896E0,6.0343426E1,8.93132E0,2.5774908E1,4.997685E2,9.040399E0,1.6991067E0,1.1055976E0,9.552933E0,1.9564287E1,5.2580786E0,3.874293E0,4.689958E0,1.5579381E0,3.3516836E0,5.699174E1,7.168309E0,1.763011E0,7.711056E0,1.8063852E1,4.4178284E2,5.7985657E1,6.0852427E0,2.9551554E0,3.7264616E0,5.8264713E0,1.2618579E1,6.945708E0,1.8518405E0,3.406238E0,2.1101778E0,2.5797803E0,5.471814E1,2.273603E0,1.0123734E0,6.155936E0,6.436349E0,1.2747073E0,3.516789E0,1.4547063E1,4.4049017E2,1.2926697E0,3.98251E1,1.8160559E1,3.5866916E0,2.4985511E0,1.1529409E0,1.8022144E0],"tree_param":{"num_deleted":"0","num_feature":"4","num_nodes":"65","size_leaf_vector":"1"}},{"base_weights":[-2.3514014E-2,-1.6180167E-1,1.3312595E-2,-1.71134E-1,1.2543398E-1,1.9290128E-1,1.0532786E-2,-1.5372533E-1,-6.066928E-1,7.908022E-3,1.8800797E-1,-1.6746737E-1,1.9699354E-1,-3.7794346E-3,-2.2776198E-1,1.433546E-2,-2.9515436E-1,-1.4581147E-1,-5.045245E-1,5.761912E-3,3.076976E-1,1.8425782E-1,-4.6711212E-1,-5.2196603E-2,6.5130934E-2,-1.9800249E-1,-1.6448641E-2,4.7780545E-3,-1.4175627E-1,3.5163972E-1,2.5590122E-2,-1.984E-1,3.155394E-2],"categories":[],"categories_nodes":[],"categories_segments":[],"categories_sizes":[],"default_left":[0,0,0,0,0,0,0,0,0,0,0,0,0,0,0,0,0,0,0,0,0,0,0,0,0,0,0,0,0,0,0,0,0],"id":12,"left_children":[1,3,5,7,-1,-1,9,11,13,15,-1,17,-1,-1,-1,19,21,23,25,27,29,-1,31,-1,-1,-1,-1,-1,-1,-1,-1,-1,-1],"loss_changes":[3.3087854E0,8.109484E-1,8.923675E-1,9.3165016E-1,0E0,0E0,8.237833E-1,1.5722873E0,4.303794E-1,1.0001383E0,0E0,8.747573E-1,0E0,0E0,0E0,1.2598388E0,1.9544601E0,1.3005011E0,4.8380542E-1,2.3818896E0,2.634571E0,0E0,1.1295371E0,0E0,0E0,0E0,0E0,0E0,0E0,0E0,0E0,0E0,0E0],"parents":[2147483647,0,0,1,1,2,2,3,3,6,6,7,7,8,8,9,9,11,11,15,15,16,16,17,17,18,18,19,19,20,20,22,22],"right_children":[2,4,6,8,-1,-1,10,12,14,16,-1,18,-1,-1,-1,20,22,24,26,28,30,-1,32,-1,-1,-1,-1,-1,-1,-1,-1,-1,-1],"split_conditions":[1E0,1.345187E4,2E0,1E4,1.2543398E-1,1.9290128E-1,6E0,9.5E3,4.26962E3,1.5E1,1.8800797E-1,9E0,1.9699354E-1,-3.7794346E-3,-2.2776198E-1,1.3E1,6.86948E3,6.80432E3,1.2E1,1.2E1,5.5E3,1.8425782E-1,1.8E1,-5.2196603E-2,6.5130934E-2,-1.9800249E-1,-1.6448641E-2,4.7780545E-3,-1.4175627E-1,3.5163972E-1,2.5590122E-2,-1.984E-1,3.155394E-2],"split_indices":[3,2,0,1,0,0,3,1,2,0,0,0,0,0,0,0,2,2,0,0,1,0,0,0,0,0,0,0,0,0,0,0,0],"split_type":[0,0,0,0,0,0,0,0,0,0,0,0,0,0,0,0,0,0,0,0,0,0,0,0,0,0,0,0,0,0,0,0,0],"sum_hessian":[6.4829285E2,1.356226E2,5.126703E2,1.341684E2,1.4542159E0,1.2410066E0,5.1142926E2,1.3031291E2,3.8554854E0,5.102684E2,1.1608428E0,1.2892006E2,1.3928487E0,1.0087306E0,2.8467548E0,5.0060416E2,9.664264E0,1.2248312E2,6.436931E0,4.8738004E2,1.3224106E1,1.1279061E0,8.536358E0,1.14141594E2,8.341534E0,4.435623E0,2.0013082E0,4.781839E2,9.196134E0,1.8321772E0,1.1391929E1,6.2572274E0,2.2791305E0],"tree_param":{"num_deleted":"0","num_feature":"4","num_nodes":"33","size_leaf_vector":"1"}},{"base_weights":[-1.6565938E-2,-1.21632345E-1,1.0254772E-2,-7.139024E-2,-2.384426E-1,3.4082013E-1,5.6576394E-3,-2.5545794E-1,-1.8269079E-3,-5.558126E-1,-1.12186216E-1,2.7206667E-2,2.43737E-1,-2.3927619E-1,8.876079E-3,-1.8959126E-1,-2.0827508E-1,2.1944141E-1,-3.3068508E-2,-6.847661E-1,2.384793E-2,1.2697037E-1,-2.3273371E-1,-1.0440256E-1,3.593194E-1,-1.587102E-2,7.122813E-2,-2.579499E-1,1.257308E-1,-5.2133733E-1,-3.6943024E-3,-3.222315E-1,-2.514869E-1,5.5328965E-1,-1.6256781E-1,-5.2527326E-1,-9.491746E-2,1.7792323E-1,-1.38151245E-2,1.4472063E-2,-1.8439908E-1,5.058698E-1,2.2672383E-2,-1.0282516E-1,5.4847293E-2,-2.8909458E-2,-1.9494642E-1,9.209769E-2,-1.312989E-2,5.9194346E-3,-1.7967835E-1,-6.1501995E-2,3.007369E-1,-1.3985354E-1,1.7078874E-1,-1.8508868E-1,-1.7472282E-2,2.1740316E-1,-8.176347E-2,-6.229153E-4,1.2584086E-1,-1.599206E-1,-8.164808E-3,2.8661653E-1,6.941217E-2,2.0191466E-2,-1.1079008E-1],"categories":[],"categories_nodes":[],"categories_segments":[],"categories_sizes":[],"default_left":[0,0,0,0,0,0,0,0,0,0,0,0,0,0,0,0,0,0,0,0,0,0,0,0,0,0,0,0,0,0,0,0,0,0,0,0,0,0,0,0,0,0,0,0,0,0,0,0,0,0,0,0,0,0,0,0,0,0,0,0,0,0,0,0,0,0,0],"id":13,"left_children":[1,3,5,7,9,11,13,15,17,19,21,23,-1,-1,25,27,-1,-1,29,31,-1,33,35,-1,37,39,41,43,-1,45,47,49,-1,51,53,55,57,-1,-1,59,61,63,65,-1,-1,-1,-1,-1,-1,-1,-1,-1,-1,-1,-1,-1,-1,-1,-1,-1,-1,-1,-1,-1,-1,-1,-1],"loss_changes":[1.8132886E0,7.5088453E-1,7.7793956E-1,1.1893201E0,1.4973857E0,1.0165417E0,1.3182026E0,6.047379E-1,1.5921632E0,9.4129753E-1,8.6849797E-1,7.7954787E-1,0E0,0E0,7.82107E-1,1.0871131E0,0E0,0E0,9.533187E-1,2.3651409E-1,0E0,1.373594E0,7.4441266E-1,0E0,3.3794418E-1,1.8596641E0,3.0272827E0,8.7645125E-1,0E0,1.4335501E-1,8.081094E-1,4.2175043E-1,0E0,1.7154777E0,1.8132668E0,2.2478259E-1,2.3248158E0,0E0,0E0,2.0695612E0,3.026074E0,1.5585063E0,2.309052E0,0E0,0E0,0E0,0E0,0E0,0E0,0E0,0E0,0E0,0E0,0E0,0E0,0E0,0E0,0E0,0E0,0E0,0E0,0E0,0E0,0E0,0E0,0E0,0E0],"parents":[2147483647,0,0,1,1,2,2,3,3,4,4,5,5,6,6,7,7,8,8,9,9,10,10,11,11,14,14,15,15,18,18,19,19,21,21,22,22,24,24,25,25,26,26,27,27,29,29,30,30,31,31,33,33,34,34,35,35,36,36,39,39,40,40,41,41,42,42],"right_children":[2,4,6,8,10,12,14,16,18,20,22,24,-1,-1,26,28,-1,-1,30,32,-1,34,36,-1,38,40,42,44,-1,46,48,50,-1,52,54,56,58,-1,-1,60,62,64,66,-1,-1,-1,-1,-1,-1,-1,-1,-1,-1,-1,-1,-1,-1,-1,-1,-1,-1,-1,-1,-1,-1,-1,-1],"split_conditions":[1E0,5E3,1.48972E3,2.22264E3,6E3,3E3,1.59917E3,2.12001E3,2.32136E3,6.80432E3,7E3,1.15466E3,2.43737E-1,-2.3927619E-1,7.28915E3,2.03134E3,-2.0827508E-1,2.1944141E-1,2.43115E3,2.7931E3,2.384793E-2,3.16421E3,3.57424E3,-1.0440256E-1,1.34073E3,6.33117E3,2.5E3,4E3,1.257308E-1,1.5E3,2.70105E3,5.5E3,-2.514869E-1,6.5E3,6.80432E3,9.5E3,4.19247E3,1.7792323E-1,-1.38151245E-2,9E3,6.60804E3,7.88603E3,1E4,-1.0282516E-1,5.4847293E-2,-2.8909458E-2,-1.9494642E-1,9.209769E-2,-1.312989E-2,5.9194346E-3,-1.7967835E-1,-6.1501995E-2,3.007369E-1,-1.3985354E-1,1.7078874E-1,-1.8508868E-1,-1.7472282E-2,2.1740316E-1,-8.176347E-2,-6.229153E-4,1.2584086E-1,-1.599206E-1,-8.164808E-3,2.8661653E-1,6.941217E-2,2.0191466E-2,-1.1079008E-1],"split_indices":[3,1,2,2,1,1,2,2,2,2,1,2,0,0,2,2,0,0,2,2,0,2,2,0,2,2,1,1,0,1,2,1,0,1,2,1,2,0,0,1,2,2,1,0,0,0,0,0,0,0,0,0,0,0,0,0,0,0,0,0,0,0,0,0,0,0,0],"split_type":[0,0,0,0,0,0,0,0,0,0,0,0,0,0,0,0,0,0,0,0,0,0,0,0,0,0,0,0,0,0,0,0,0,0,0,0,0,0,0,0,0,0,0,0,0,0,0,0,0,0,0,0,0,0,0,0,0,0,0,0,0,0,0,0,0,0,0],"sum_hessian":[6.4203394E2,1.2984584E2,5.121881E2,9.192044E1,3.7925404E1,6.022075E0,5.0616602E2,2.447807E1,6.744237E1,9.8253145E0,2.8100092E1,4.252243E0,1.7698324E0,1.0350076E0,5.05131E2,2.2528425E1,1.9496437E0,1.8400321E0,6.560234E1,8.102771E0,1.7225431E0,9.399317E0,1.8700775E1,1.9740889E0,2.2781541E0,3.62144E2,1.42987E2,2.0771887E1,1.7565377E0,2.7722843E0,6.2830055E1,3.3324168E0,4.7703543E0,3.4332387E0,5.966078E0,5.088379E0,1.3612395E1,1.1512365E0,1.1269176E0,3.0766397E2,5.448005E1,1.3422106E1,1.295649E2,1.7606884E1,3.1650026E0,1.0498445E0,1.7224398E0,6.416964E0,5.641309E1,1.9057862E0,1.4266306E0,1.479347E0,1.9538919E0,4.473352E0,1.4927261E0,3.9850056E0,1.1033735E0,1.876097E0,1.1736299E1,2.9654196E2,1.1122016E1,1.6185453E1,3.8294594E1,4.148288E0,9.273818E0,1.17063576E2,1.2501313E1],"tree_param":{"num_deleted":"0","num_feature":"4","num_nodes":"67","size_leaf_vector":"1"}},{"base_weights":[-1.29435E-2,-9.499481E-2,7.4625765E-3,-1.9755691E-1,-4.479439E-2,1.8504386E-1,4.96375E-3,-4.482604E-2,-5.904671E-1,6.17058E-1,-7.283349E-2,2.475342E-3,1.7388216E-1,-9.894676E-2,4.190449E-1,-2.9827616E-1,-2.2118826E-1,-2.4608037E-2,2.845967E-1,5.7609595E-2,-1.4699104E-1,5.7063918E-3,-2.063693E-1,-1.7019075E-1,3.346367E-1,-3.1839427E-2,2.1938096E-1,-2.012078E-4,-1.9014935E-1,-1.8419883E-1,1.1143627E-1,-4.824116E-1,-2.333415E-2,1.51194E-4,2.8401563E-1,-1.4836083E-1,-3.205276E-2,2.7841038E-1,-9.457461E-2,-8.79594E-2,1.1270767E-1,-9.416398E-3,7.6917276E-2,-2.1924049E-1,3.9666884E-2,5.336969E-2,-5.0955903E-2,2.7428243E-2,-4.3871533E-3,1.6247857E-1,-9.6241884E-2],"categories":[],"categories_nodes":[],"categories_segments":[],"categories_sizes":[],"default_left":[0,0,0,0,0,0,0,0,0,0,0,0,0,0,0,0,0,0,0,0,0,0,0,0,0,0,0,0,0,0,0,0,0,0,0,0,0,0,0,0,0,0,0,0,0,0,0,0,0,0,0],"id":14,"left_children":[1,3,5,7,9,-1,11,13,15,17,19,21,-1,23,25,27,-1,-1,-1,29,31,33,-1,35,37,-1,-1,39,-1,-1,41,43,45,47,49,-1,-1,-1,-1,-1,-1,-1,-1,-1,-1,-1,-1,-1,-1,-1,-1],"loss_changes":[1.069593E0,6.461556E-1,7.768004E-1,2.464707E0,1.6540023E0,0E0,7.293928E-1,8.1909686E-1,2.7507162E-1,9.1919374E-1,8.2176423E-1,1.1412959E0,0E0,9.388011E-1,6.396069E-1,5.538026E-1,0E0,0E0,0E0,1.1960145E0,2.223703E0,7.861366E-1,0E0,4.645673E-1,1.9762505E0,0E0,0E0,5.433368E-1,0E0,0E0,6.2342E-1,2.3047433E0,1.2220021E0,6.7503995E-1,1.7239864E0,0E0,0E0,0E0,0E0,0E0,0E0,0E0,0E0,0E0,0E0,0E0,0E0,0E0,0E0,0E0,0E0],"parents":[2147483647,0,0,1,1,2,2,3,3,4,4,6,6,7,7,8,8,9,9,10,10,11,11,13,13,14,14,15,15,19,19,20,20,21,21,23,23,24,24,27,27,30,30,31,31,32,32,33,33,34,34],"right_children":[2,4,6,8,10,-1,12,14,16,18,20,22,-1,24,26,28,-1,-1,-1,30,32,34,-1,36,38,-1,-1,40,-1,-1,42,44,46,48,50,-1,-1,-1,-1,-1,-1,-1,-1,-1,-1,-1,-1,-1,-1,-1,-1],"split_conditions":[1E0,2.63491E3,5E2,4E0,2.70105E3,1.8504386E-1,1.6E4,6.5E3,1.92443E3,3E3,3E3,1.4E4,1.7388216E-1,2.43115E3,3E0,5E3,-2.2118826E-1,-2.4608037E-2,2.845967E-1,2.85121E3,4E0,1.345187E4,-2.063693E-1,6.6241E2,2.50227E3,-3.1839427E-2,2.1938096E-1,5E0,-1.9014935E-1,-1.8419883E-1,3E0,5.62742E3,4.55704E3,3.16421E3,9E3,-1.4836083E-1,-3.205276E-2,2.7841038E-1,-9.457461E-2,-8.79594E-2,1.1270767E-1,-9.416398E-3,7.6917276E-2,-2.1924049E-1,3.9666884E-2,5.336969E-2,-5.0955903E-2,2.7428243E-2,-4.3871533E-3,1.6247857E-1,-9.6241884E-2],"split_indices":[3,2,1,0,2,0,1,1,2,1,1,1,0,2,0,1,0,0,0,2,0,2,0,2,2,0,0,0,0,0,0,2,2,2,1,0,0,0,0,0,0,0,0,0,0,0,0,0,0,0,0],"split_type":[0,0,0,0,0,0,0,0,0,0,0,0,0,0,0,0,0,0,0,0,0,0,0,0,0,0,0,0,0,0,0,0,0,0,0,0,0,0,0,0,0,0,0,0,0,0,0,0,0,0,0],"sum_hessian":[6.373892E2,1.2621857E2,5.111707E2,4.0513004E1,8.570556E1,1.0836216E0,5.1008704E2,2.9975214E1,1.0537788E1,2.629527E0,8.3076035E1,5.088877E2,1.1993549E0,2.7547848E1,2.4273674E0,4.538165E0,5.9996233E0,1.0881295E0,1.5413976E0,3.0191807E1,5.2884228E1,5.0750424E2,1.3834622E0,2.4181894E1,3.3659537E0,1.1511544E0,1.2762129E0,2.9331949E0,1.6049703E0,1.468028E0,2.8723778E1,1.3463403E1,3.9420826E1,4.985534E2,8.950843E0,2.8390772E0,2.1342817E1,1.5357199E0,1.8302338E0,1.7719861E0,1.1612087E0,1.4862839E1,1.386094E1,9.453851E0,4.009552E0,1.6518997E1,2.2901827E1,6.873552E1,4.2981787E2,6.350745E0,2.6000972E0],"tree_param":{"num_deleted":"0","num_feature":"4","num_nodes":"51","size_leaf_vector":"1"}},{"base_weights":[-1.0222077E-2,-1.406039E-2,3.6476645E-1,-9.161246E-2,4.9075508E-3,9.988462E-1,-5.485311E-1,-7.523361E-2,-2.270706E-1,-5.279223E-3,1.5534657E-1,7.316503E-2,3.812708E-1,-4.5398343E-2,-1.981053E-1,-8.8570334E-2,1.3541923E-1,2.2433786E-2,-1.0132812E-1,4.6473435E-1,-1.3289832E-2,2.8255511E-2,-1.4097396E-1,-6.6517503E-3,1.5480693E-1,-7.040204E-1,-7.082923E-2,1.9338079E-1,3.993666E-1,-4.6596953E-1,1.0545449E-1,-4.3276135E-2,4.0220115E-2,-1.1323596E-1,-2.3783261E-2,-1.8555894E-2,2.7327884E-2,6.1231446E-2,-1.7460918E-1,-4.0121347E-2,-2.6279917E-1,2.666684E-1,-2.778188E-2,-2.6663195E-2,3.3998373E-1,-2.1282582E-1,4.7130372E-2,1.0826074E-1,-7.776931E-2],"categories":[],"categories_nodes":[],"categories_segments":[],"categories_sizes":[],"default_left":[0,0,0,0,0,0,0,0,0,0,0,0,0,0,0,0,0,0,0,0,0,0,0,0,0,0,0,0,0,0,0,0,0,0,0,0,0,0,0,0,0,0,0,0,0,0,0,0,0],"id":15,"left_children":[1,3,5,7,9,11,13,15,-1,17,19,-1,-1,-1,-1,21,-1,23,25,27,29,31,33,35,37,39,41,43,-1,45,47,-1,-1,-1,-1,-1,-1,-1,-1,-1,-1,-1,-1,-1,-1,-1,-1,-1,-1],"loss_changes":[9.194468E-1,9.268406E-1,4.296696E0,1.2921925E0,7.777249E-1,5.4761696E-1,4.655999E-2,8.9648086E-1,0E0,1.268687E0,1.6853293E0,0E0,0E0,0E0,0E0,7.372347E-1,0E0,1.4257967E0,1.9117519E0,2.4186358E0,1.2210747E0,7.1153724E-1,1.1788489E0,1.647803E0,2.5417807E0,3.760066E-1,2.2285075E0,2.7104666E0,0E0,8.2667255E-1,1.7782857E0,0E0,0E0,0E0,0E0,0E0,0E0,0E0,0E0,0E0,0E0,0E0,0E0,0E0,0E0,0E0,0E0,0E0,0E0],"parents":[2147483647,0,0,1,1,2,2,3,3,4,4,5,5,6,6,7,7,9,9,10,10,15,15,17,17,18,18,19,19,20,20,21,21,22,22,23,23,24,24,25,25,26,26,27,27,29,29,30,30],"right_children":[2,4,6,8,10,12,14,16,-1,18,20,-1,-1,-1,-1,22,-1,24,26,28,30,32,34,36,38,40,42,44,-1,46,48,-1,-1,-1,-1,-1,-1,-1,-1,-1,-1,-1,-1,-1,-1,-1,-1,-1,-1],"split_conditions":[1.474739E4,1E0,9E3,1.113599E4,9E3,6E3,2E0,9.78526E3,-2.270706E-1,8E0,5.75722E3,7.316503E-2,3.812708E-1,-4.5398343E-2,-1.981053E-1,2.5E3,1.3541923E-1,2E0,3.64143E3,5.5844E3,8E0,2E0,3E0,5.48579E3,1.039409E4,4E3,3.89357E3,1.4E1,3.993666E-1,1.1E4,1.1E4,-4.3276135E-2,4.0220115E-2,-1.1323596E-1,-2.3783261E-2,-1.8555894E-2,2.7327884E-2,6.1231446E-2,-1.7460918E-1,-4.0121347E-2,-2.6279917E-1,2.666684E-1,-2.778188E-2,-2.6663195E-2,3.3998373E-1,-2.1282582E-1,4.7130372E-2,1.0826074E-1,-7.776931E-2],"split_indices":[2,3,1,2,1,1,3,2,0,0,2,0,0,0,0,1,0,3,2,2,0,0,0,2,2,1,2,0,0,1,1,0,0,0,0,0,0,0,0,0,0,0,0,0,0,0,0,0,0],"split_type":[0,0,0,0,0,0,0,0,0,0,0,0,0,0,0,0,0,0,0,0,0,0,0,0,0,0,0,0,0,0,0,0,0,0,0,0,0,0,0,0,0,0,0,0,0,0,0,0,0],"sum_hessian":[6.342417E2,6.2876825E2,5.4734497E0,1.2281178E2,5.0595648E2,3.1752694E0,2.2981803E0,1.2094725E2,1.864532E0,4.747728E2,3.1183685E1,1.3434924E0,1.831777E0,1.0218196E0,1.2763608E0,1.1877123E2,2.1760175E0,3.6905554E2,1.0571725E2,1.0381496E1,2.0802189E1,3.6921417E1,8.1849815E1,3.0335168E2,6.570385E1,4.0283833E0,1.0168886E2,8.837179E0,1.5443174E0,3.7151337E0,1.7087055E1,1.38986E1,2.3022818E1,1.5876831E1,6.5972984E1,1.941007E2,1.09251E2,6.226128E1,3.4425712E0,1.3452214E0,2.683162E0,1.3727587E0,1.003161E2,7.4925528E0,1.344627E0,2.5717132E0,1.1434205E0,1.0055179E1,7.0318766E0],"tree_param":{"num_deleted":"0","num_feature":"4","num_nodes":"49","size_leaf_vector":"1"}},{"base_weights":[-7.320311E-3,-9.085928E-4,-1.7467149E-1,-1.0060812E-2,2.9795036E-1,-3.6442256E-1,1.3580585E-1,-1.5832473E-2,7.9442173E-1,4.2816272E-1,-2.1431756E-1,-4.9055687E-1,1.4495145E-1,7.9034096E-1,-1.77153E-1,-9.3124565E-3,-4.142385E-1,6.0159415E-2,3.015351E-1,-1.2544566E-1,5.4934883E-1,-6.792871E-1,1.7715059E-1,4.496908E-1,-8.0584906E-2,4.5577383E-1,-5.4913014E-1,1.107142E-3,-2.056976E-1,-6.82472E-1,1.6085857E-1,4.0176603E-1,3.699088E-1,-3.66336E-1,-2.9388326E-1,2.3559779E-1,-1.92999E-1,2.7533498E-2,1.8654485E-1,-2.4860121E-1,2.9794183E-3,-4.7109104E-3,3.2230195E-2,3.9080396E-2,-1.10782586E-1,6.282002E-2,-3.0299938E-1,1.7281774E-1,-9.8240495E-2,-1.652824E-1,9.0585165E-2],"categories":[],"categories_nodes":[],"categories_segments":[],"categories_sizes":[],"default_left":[0,0,0,0,0,0,0,0,0,0,0,0,0,0,0,0,0,0,0,0,0,0,0,0,0,0,0,0,0,0,0,0,0,0,0,0,0,0,0,0,0,0,0,0,0,0,0,0,0,0,0],"id":16,"left_children":[1,3,5,7,9,11,13,15,17,19,-1,21,-1,23,25,27,29,-1,-1,-1,31,33,35,-1,-1,37,39,41,43,45,-1,47,-1,49,-1,-1,-1,-1,-1,-1,-1,-1,-1,-1,-1,-1,-1,-1,-1,-1,-1],"loss_changes":[6.765604E-1,1.6671299E0,1.4201808E0,2.7580893E0,2.6932402E0,1.8099074E0,2.0970862E0,1.5237105E0,3.279314E-1,1.9396291E0,0E0,1.79668E0,0E0,2.8591714E0,1.964349E0,1.1862779E0,2.7740552E0,0E0,0E0,0E0,1.0197177E0,6.353221E-1,2.363782E0,0E0,0E0,1.388365E-1,7.9573596E-1,9.8726463E-1,1.6533164E0,2.4919457E0,0E0,1.9468699E0,0E0,1.0024834E0,0E0,0E0,0E0,0E0,0E0,0E0,0E0,0E0,0E0,0E0,0E0,0E0,0E0,0E0,0E0,0E0,0E0],"parents":[2147483647,0,0,1,1,2,2,3,3,4,4,5,5,6,6,7,7,8,8,9,9,11,11,13,13,14,14,15,15,16,16,20,20,21,21,22,22,25,25,26,26,27,27,28,28,29,29,31,31,33,33],"right_children":[2,4,6,8,10,12,14,16,18,20,-1,22,-1,24,26,28,30,-1,-1,-1,32,34,36,-1,-1,38,40,42,44,46,-1,48,-1,50,-1,-1,-1,-1,-1,-1,-1,-1,-1,-1,-1,-1,-1,-1,-1,-1,-1],"split_conditions":[1E4,9E3,1.2E4,1.474739E4,1.187961E4,4E0,1E1,8.5E3,6E3,3.64143E3,-2.1431756E-1,1.039409E4,1.4495145E-1,1.3E4,6.66678E3,1.1E1,1.3E1,6.0159415E-2,3.015351E-1,-1.2544566E-1,3E0,7.10709E3,2E0,4.496908E-1,-8.0584906E-2,1.5E4,1.6E1,8.0166E3,5.5E3,4.45005E3,1.6085857E-1,2E0,3.699088E-1,6.66678E3,-2.9388326E-1,2.3559779E-1,-1.92999E-1,2.7533498E-2,1.8654485E-1,-2.4860121E-1,2.9794183E-3,-4.7109104E-3,3.2230195E-2,3.9080396E-2,-1.10782586E-1,6.282002E-2,-3.0299938E-1,1.7281774E-1,-9.8240495E-2,-1.652824E-1,9.0585165E-2],"split_indices":[1,1,1,2,2,3,0,1,1,2,0,2,0,1,2,0,0,0,0,0,3,2,3,0,0,1,0,2,1,2,0,3,0,2,0,0,0,0,0,0,0,0,0,0,0,0,0,0,0,0,0],"split_type":[0,0,0,0,0,0,0,0,0,0,0,0,0,0,0,0,0,0,0,0,0,0,0,0,0,0,0,0,0,0,0,0,0,0,0,0,0,0,0,0,0,0,0,0,0,0,0,0,0,0,0],"sum_hessian":[6.296745E2,6.074083E2,2.226618E1,5.902975E2,1.7110863E1,1.3712133E1,8.554046E0,5.87066E2,3.2315118E0,1.5672097E1,1.4387643E0,1.2302569E1,1.4095649E0,2.2735877E0,6.2804585E0,5.7862006E2,8.445889E0,1.3573334E0,1.8741784E0,1.656096E0,1.4016002E1,9.577974E0,2.724595E0,1.1131684E0,1.1604193E0,2.2413986E0,4.0390596E0,5.5041125E2,2.8208788E1,6.806797E0,1.6390926E0,1.2833375E1,1.1826267E0,5.777431E0,3.8005428E0,1.5893484E0,1.1352466E0,1.1885712E0,1.0528274E0,2.371177E0,1.6678827E0,4.760073E2,7.440399E1,9.303774E0,1.8905014E1,1.9251531E0,4.881644E0,1.0527309E1,2.306065E0,4.6645126E0,1.1129186E0],"tree_param":{"num_deleted":"0","num_feature":"4","num_nodes":"51","size_leaf_vector":"1"}},{"base_weights":[-5.377139E-3,-7.0846817E-3,1.5119787E-1,1.5808097E-1,-1.2121345E-2,-3.641512E-1,3.5176066E-1,-1.6445719E-1,-1.02330735E-2,7.791416E-2,-2.643054E-1,4.6788776E-1,1.11425854E-1,1.8796209E-1,-1.4024238E-2,-4.6156652E-2,7.784658E-2,6.949877E-1,-1.2721062E-1,-1.1705027E-1,4.554426E-1,-1.7916591E-1,-1.1841625E-2,2.8237608E-1,1.1528231E-1,1.2522274E-2,-7.13323E-2,3.364986E-2,2.0999469E-1,1.14773124E-1,-4.0790597E-3],"categories":[],"categories_nodes":[],"categories_segments":[],"categories_sizes":[],"default_left":[0,0,0,0,0,0,0,0,0,0,0,0,0,0,0,0,0,0,0,0,0,0,0,0,0,0,0,0,0,0,0],"id":17,"left_children":[1,3,-1,5,7,9,11,-1,13,15,-1,17,19,-1,21,-1,-1,23,25,-1,27,-1,29,-1,-1,-1,-1,-1,-1,-1,-1],"loss_changes":[5.497606E-1,5.2338904E-1,0E0,2.011563E0,6.110866E-1,1.3319776E0,3.4117138E-1,0E0,1.4768504E0,2.0400444E-1,0E0,1.3302374E0,1.1963898E0,0E0,7.636581E-1,0E0,0E0,1.5903854E-1,7.312477E-2,0E0,2.541765E-1,0E0,4.235298E-1,0E0,0E0,0E0,0E0,0E0,0E0,0E0,0E0],"parents":[2147483647,0,0,1,1,3,3,4,4,5,5,6,6,8,8,9,9,11,11,12,12,14,14,17,17,18,18,20,20,22,22],"right_children":[2,4,-1,6,8,10,12,-1,14,16,-1,18,20,-1,22,-1,-1,24,26,-1,28,-1,30,-1,-1,-1,-1,-1,-1,-1,-1],"split_conditions":[6E0,1E3,1.5119787E-1,2.00698E3,5.8544E2,1.45506E3,3.86944E3,-1.6445719E-1,7.8015E2,1E0,-2.643054E-1,3E0,4.47939E3,1.8796209E-1,8.9047E2,-4.6156652E-2,7.784658E-2,2.67778E3,2.60896E3,-1.1705027E-1,3E0,-1.7916591E-1,9.7772E2,2.8237608E-1,1.1528231E-1,1.2522274E-2,-7.13323E-2,3.364986E-2,2.0999469E-1,1.14773124E-1,-4.0790597E-3],"split_indices":[3,1,0,2,2,2,2,0,2,3,0,0,2,0,2,0,0,2,2,0,0,0,2,0,0,0,0,0,0,0,0],"split_type":[0,0,0,0,0,0,0,0,0,0,0,0,0,0,0,0,0,0,0,0,0,0,0,0,0,0,0,0,0,0,0],"sum_hessian":[6.2696985E2,6.258579E2,1.1119498E0,1.762133E1,6.082366E2,4.5290804E0,1.3092251E1,1.1194447E0,6.071171E2,2.8989372E0,1.6301434E0,8.18873E0,4.90352E0,2.62102E0,6.0449615E2,1.3405095E0,1.5584277E0,5.805425E0,2.3833053E0,1.9403058E0,2.9632144E0,1.2373956E0,6.032587E2,2.106511E0,3.698914E0,1.1889508E0,1.1943544E0,1.8395708E0,1.1236435E0,1.7114756E0,6.0154724E2],"tree_param":{"num_deleted":"0","num_feature":"4","num_nodes":"31","size_leaf_vector":"1"}},{"base_weights":[-3.4145513E-3,-1.0175512E-1,4.2101108E-3,-1.7050146E-1,4.180409E-1,4.5293197E-1,-5.2088173E-4,-4.795143E-2,-4.167027E-1,8.7173045E-1,-1.16234675E-1,-6.835276E-2,7.2542316E-1,-1.6596845E-1,1.7924232E-3,7.89619E-2,-2.1275589E-1,-8.048744E-1,-1.1418656E-1,3.9710306E-2,3.9038166E-1,1.0407352E-1,2.7720416E-1,9.266301E-2,-1.0700897E-2,-1.008934E-1,2.4266861E-1,-3.8230368E-1,2.7723897E-2,-3.5723735E-2,-2.783961E-1,2.6943105E-1,-2.4241692E-1,3.5532776E-3,4.714903E-1,-2.8633758E-1,7.214465E-3,3.577635E-2,-1.7886382E-1,-2.4079457E-2,2.4840043E-1,-1.6816112E-1,-5.126357E-2,9.6694455E-2,-1.0824259E-1,2.1817176E-1,-1.5321465E-1,2.4308125E-2,-1.0300135E-1,2.5041962E-1,2.7536152E-2,-1.1439883E-1,1.19434625E-1,1.1565701E-1,-9.64225E-4],"categories":[],"categories_nodes":[],"categories_segments":[],"categories_sizes":[],"default_left":[0,0,0,0,0,0,0,0,0,0,0,0,0,0,0,0,0,0,0,0,0,0,0,0,0,0,0,0,0,0,0,0,0,0,0,0,0,0,0,0,0,0,0,0,0,0,0,0,0,0,0,0,0,0,0],"id":18,"left_children":[1,3,5,7,9,11,13,15,17,19,-1,-1,21,-1,23,25,27,29,31,-1,-1,-1,-1,33,35,37,39,41,43,-1,-1,45,-1,47,49,51,53,-1,-1,-1,-1,-1,-1,-1,-1,-1,-1,-1,-1,-1,-1,-1,-1,-1,-1],"loss_changes":[4.7048923E-1,1.6846051E0,1.2373673E0,1.2045425E0,2.3708384E0,1.2933735E0,7.3959446E-1,6.0719186E-1,1.4766812E0,1.0557201E0,0E0,0E0,2.386403E-2,0E0,6.55209E-1,5.154841E-1,5.2233773E-1,3.6950684E-1,2.5261748E0,0E0,0E0,0E0,0E0,2.3530557E0,2.5082083E0,1.0145915E0,1.7721303E0,1.841526E-1,8.1703615E-1,0E0,0E0,2.6339312E0,0E0,1.5725666E0,1.7544496E0,2.1671975E0,1.8851203E0,0E0,0E0,0E0,0E0,0E0,0E0,0E0,0E0,0E0,0E0,0E0,0E0,0E0,0E0,0E0,0E0,0E0,0E0],"parents":[2147483647,0,0,1,1,2,2,3,3,4,4,5,5,6,6,7,7,8,8,9,9,12,12,14,14,15,15,16,16,17,17,18,18,23,23,24,24,25,25,26,26,27,27,28,28,31,31,33,33,34,34,35,35,36,36],"right_children":[2,4,6,8,10,12,14,16,18,20,-1,-1,22,-1,24,26,28,30,32,-1,-1,-1,-1,34,36,38,40,42,44,-1,-1,46,-1,48,50,52,54,-1,-1,-1,-1,-1,-1,-1,-1,-1,-1,-1,-1,-1,-1,-1,-1,-1,-1],"split_conditions":[2.16849E3,6.5E3,2.24168E3,4E0,7.5E3,1E0,2.26854E3,2.5E3,3E3,1.37928E3,-1.16234675E-1,-6.835276E-2,2.5E3,-1.6596845E-1,3.16421E3,1.59917E3,4E3,1.3103E3,1.94549E3,3.9710306E-2,3.9038166E-1,1.0407352E-1,2.7720416E-1,3.02822E3,3.47069E3,1.34073E3,3E0,1.34073E3,1.63601E3,-3.5723735E-2,-2.783961E-1,5E3,-2.4241692E-1,2.89876E3,3E3,2E0,3.5994E3,3.577635E-2,-1.7886382E-1,-2.4079457E-2,2.4840043E-1,-1.6816112E-1,-5.126357E-2,9.6694455E-2,-1.0824259E-1,2.1817176E-1,-1.5321465E-1,2.4308125E-2,-1.0300135E-1,2.5041962E-1,2.7536152E-2,-1.1439883E-1,1.19434625E-1,1.1565701E-1,-9.64225E-4],"split_indices":[2,1,2,0,1,3,2,1,1,2,0,0,1,0,2,2,1,2,2,0,0,0,0,2,2,2,0,2,2,0,0,1,0,2,1,3,2,0,0,0,0,0,0,0,0,0,0,0,0,0,0,0,0,0,0],"split_type":[0,0,0,0,0,0,0,0,0,0,0,0,0,0,0,0,0,0,0,0,0,0,0,0,0,0,0,0,0,0,0,0,0,0,0,0,0,0,0,0,0,0,0,0,0,0,0,0,0,0,0,0,0,0,0],"sum_hessian":[6.2590356E2,4.4148186E1,5.817554E2,3.9584824E1,4.563361E0,5.081188E0,5.766742E2,2.7226986E1,1.2357839E1,2.8665497E0,1.6968116E0,1.4992963E0,3.581892E0,1.4109539E0,5.752632E2,1.567601E1,1.1550975E1,4.685311E0,7.672528E0,1.5340962E0,1.3324536E0,2.177834E0,1.404058E0,6.875493E1,5.065083E2,7.652422E0,8.023588E0,6.4287186E0,5.122256E0,1.0124911E0,3.6728194E0,5.3347945E0,2.337733E0,5.6479015E1,1.2275909E1,2.9997599E1,4.7651068E2,5.8234076E0,1.8290142E0,5.7268863E0,2.2967021E0,2.5922203E0,3.8364985E0,3.0102625E0,2.1119936E0,3.4046714E0,1.9301232E0,4.679447E1,9.684543E0,5.661486E0,6.6144233E0,2.6730656E1,3.2669444E0,1.1818311E1,4.6469238E2],"tree_param":{"num_deleted":"0","num_feature":"4","num_nodes":"55","size_leaf_vector":"1"}},{"base_weights":[-3.1936506E-3,-7.776631E-2,7.1259458E-3,4.3601763E-2,-2.510843E-1,4.804739E-1,8.8059845E-5,8.021528E-2,-2.4877033E-1,-6.2712914E-1,-1.25663E-1,4.3081015E-2,1.043697E0,-2.0222388E-1,4.072183E-3,2.2881148E-2,6.7202985E-1,1.0001092E-1,-6.20179E-1,-2.4339615E-1,-2.3924045E-1,4.5885047E-1,-2.7721882E-1,3.2942602E-1,-9.761809E-2,4.150339E-1,6.0286753E-2,7.5842077E-1,-1.81099E-3,-2.8328504E-2,4.980205E-1,2.9993808E-1,3.658703E-2,-5.8263797E-2,-2.2673796E-1,-1.7553085E-1,6.9105126E-2,-4.558737E-2,2.38025E-1,-4.863171E-2,-7.5013995E-1,-5.0166078E-2,1.996692E-1,5.7894956E-2,3.3411717E-1,2.4802335E-1,-6.6345287E-3,-1.19989276E-1,2.5890386E-3,-1.7570011E-2,2.1925801E-1,5.4895125E-2,-1.3027465E-1,-2.943168E-1,-4.1306183E-2,6.568603E-3,2.420122E-1,-2.2065766E-2,4.05712E-3],"categories":[],"categories_nodes":[],"categories_segments":[],"categories_sizes":[],"default_left":[0,0,0,0,0,0,0,0,0,0,0,0,0,0,0,0,0,0,0,0,0,0,0,0,0,0,0,0,0,0,0,0,0,0,0,0,0,0,0,0,0,0,0,0,0,0,0,0,0,0,0,0,0,0,0,0,0,0,0],"id":19,"left_children":[1,3,5,7,9,11,13,15,17,19,21,23,25,-1,27,29,31,-1,33,35,-1,37,39,41,-1,-1,-1,43,45,47,49,-1,-1,-1,-1,-1,-1,-1,-1,51,53,-1,-1,-1,-1,55,57,-1,-1,-1,-1,-1,-1,-1,-1,-1,-1,-1,-1],"loss_changes":[4.8198807E-1,1.6124083E0,1.8337578E0,5.084005E-1,1.4070208E0,1.9416965E0,1.4622995E0,1.3862116E0,1.3574171E0,3.0454683E-1,2.3307633E0,6.961874E-1,7.1898055E-1,0E0,2.4032063E0,9.555937E-1,5.2947986E-1,0E0,6.1098933E-2,7.474366E-1,0E0,1.2441744E0,2.1662846E0,7.186545E-1,0E0,0E0,0E0,6.269598E-1,6.4999485E-1,4.9620473E-1,5.376542E-1,0E0,0E0,0E0,0E0,0E0,0E0,0E0,0E0,1.4018621E0,7.941339E-1,0E0,0E0,0E0,0E0,1.2730486E0,7.1431243E-1,0E0,0E0,0E0,0E0,0E0,0E0,0E0,0E0,0E0,0E0,0E0,0E0],"parents":[2147483647,0,0,1,1,2,2,3,3,4,4,5,5,6,6,7,7,8,8,9,9,10,10,11,11,12,12,14,14,15,15,16,16,18,18,19,19,21,21,22,22,23,23,27,27,28,28,29,29,30,30,39,39,40,40,45,45,46,46],"right_children":[2,4,6,8,10,12,14,16,18,20,22,24,26,-1,28,30,32,-1,34,36,-1,38,40,42,-1,-1,-1,44,46,48,50,-1,-1,-1,-1,-1,-1,-1,-1,52,54,-1,-1,-1,-1,56,58,-1,-1,-1,-1,-1,-1,-1,-1,-1,-1,-1,-1],"split_conditions":[2.63491E3,4E0,2.73261E3,2.50227E3,2E3,5E0,2.75333E3,2.43115E3,2E3,1.5E3,2.5E3,1E0,5E3,-2.0222388E-1,2.7931E3,6.5E3,2.45555E3,1.0001092E-1,2.57367E3,2.32136E3,-2.3924045E-1,2.34403E3,2.32136E3,3E3,-9.761809E-2,4.150339E-1,6.0286753E-2,5E0,1E3,6.6241E2,3E0,2.9993808E-1,3.658703E-2,-5.8263797E-2,-2.2673796E-1,-1.7553085E-1,6.9105126E-2,-4.558737E-2,2.38025E-1,5E3,5E3,-5.0166078E-2,1.996692E-1,5.7894956E-2,3.3411717E-1,2E0,4.12771E3,-1.19989276E-1,2.5890386E-3,-1.7570011E-2,2.1925801E-1,5.4895125E-2,-1.3027465E-1,-2.943168E-1,-4.1306183E-2,6.568603E-3,2.420122E-1,-2.2065766E-2,4.05712E-3],"split_indices":[2,0,2,2,1,0,2,2,1,1,1,3,1,0,2,1,2,0,2,2,0,2,2,1,0,0,0,0,1,2,0,0,0,0,0,0,0,0,0,1,1,0,0,0,0,3,2,0,0,0,0,0,0,0,0,0,0,0,0],"split_type":[0,0,0,0,0,0,0,0,0,0,0,0,0,0,0,0,0,0,0,0,0,0,0,0,0,0,0,0,0,0,0,0,0,0,0,0,0,0,0,0,0,0,0,0,0,0,0,0,0,0,0,0,0,0,0,0,0,0,0],"sum_hessian":[6.245966E2,7.5132164E1,5.494645E2,4.4628754E1,3.0503408E1,7.064388E0,5.424001E2,4.0306805E1,4.3219485E0,6.628701E0,2.3874706E1,4.582308E0,2.4820802E0,2.198465E0,5.402016E2,3.7693752E1,2.6130528E0,1.7232975E0,2.598651E0,2.784587E0,3.8441145E0,4.4982944E0,1.9376411E1,2.6381505E0,1.9441571E0,1.3116772E0,1.1704029E0,3.1905556E0,5.3701105E2,3.487533E1,2.8184211E0,1.1250949E0,1.487958E0,1.2148584E0,1.3837926E0,1.481179E0,1.3034079E0,1.7850972E0,2.7131972E0,1.3806064E1,5.5703487E0,1.2676754E0,1.370475E0,1.8266822E0,1.3638735E0,9.216655E0,5.277944E2,2.2661567E0,3.2609173E1,1.0520452E0,1.7663758E0,8.953656E0,4.852408E0,3.6081157E0,1.9622331E0,7.300827E0,1.9158276E0,1.2157184E2,4.0622253E2],"tree_param":{"num_deleted":"0","num_feature":"4","num_nodes":"59","size_leaf_vector":"1"}},{"base_weights":[-1.9165851E-3,-4.015819E-3,3.156675E-1,1.4362022E-3,-1.5779528E-1,1.7095576E-1,9.343253E-3,-3.7989344E-3,2.8402174E-1,-3.523739E-1,1.3439317E-1,-7.6154E-3,5.2031404E-1,-4.8449418E-1,5.939289E-1,-4.9027833E-1,9.641927E-2,2.421401E-1,-1.3117258E-1,-4.701006E-3,-1.726503E-1,2.4536559E-1,1.5276265E-1,-1.9569652E-1,-4.5241933E-2,3.769841E-1,2.4452013E-1,-1.6054481E-1,-2.7469215E-1,1.7310904E-1,-1.8174815E-1,1.3156785E-1,-2.0956576E-1,6.2695737E-3,-1.2665836E-2,-3.1854972E-2,1.05693504E-1,-1.2435336E-1,1.6989844E-1,-1.7861874E-1,7.349795E-2,-3.312664E-2,1.9851625E-1],"categories":[],"categories_nodes":[],"categories_segments":[],"categories_sizes":[],"default_left":[0,0,0,0,0,0,0,0,0,0,0,0,0,0,0,0,0,0,0,0,0,0,0,0,0,0,0,0,0,0,0,0,0,0,0,0,0,0,0,0,0,0,0],"id":20,"left_children":[1,3,5,7,9,-1,-1,11,13,15,17,19,21,23,25,27,29,-1,31,33,-1,-1,35,-1,-1,-1,37,39,-1,-1,-1,41,-1,-1,-1,-1,-1,-1,-1,-1,-1,-1,-1],"loss_changes":[4.1750833E-1,5.2107394E-1,2.7966702E-1,8.901135E-1,1.2571896E0,0E0,0E0,1.1861345E0,2.8942406E0,8.5491765E-1,1.7549149E0,9.7000027E-1,3.4392798E-1,1.0859138E-1,1.6025817E0,1.2761192E0,1.6668664E0,0E0,1.2066829E0,5.634505E-1,0E0,0E0,2.0005393E-1,0E0,0E0,0E0,1.6434443E0,1.3676833E0,0E0,0E0,0E0,8.367466E-1,0E0,0E0,0E0,0E0,0E0,0E0,0E0,0E0,0E0,0E0,0E0],"parents":[2147483647,0,0,1,1,2,2,3,3,4,4,7,7,8,8,9,9,10,10,11,11,12,12,13,13,14,14,15,15,16,16,18,18,19,19,22,22,26,26,27,27,31,31],"right_children":[2,4,6,8,10,-1,-1,12,14,16,18,20,22,24,26,28,30,-1,32,34,-1,-1,36,-1,-1,-1,38,40,-1,-1,-1,42,-1,-1,-1,-1,-1,-1,-1,-1,-1,-1,-1],"split_conditions":[5E0,1E4,1.2E1,9.5E3,1.2E4,1.7095576E-1,9.343253E-3,1.474739E4,4.90043E3,1.039409E4,1.25E4,1.6E1,1E1,4.03823E3,5.75722E3,7.36923E3,2E0,2.421401E-1,1.068293E4,6E0,-1.726503E-1,2.4536559E-1,7.5E3,-1.9569652E-1,-4.5241933E-2,3.769841E-1,7.5909E3,5.51784E3,-2.7469215E-1,1.7310904E-1,-1.8174815E-1,9.56065E3,-2.0956576E-1,6.2695737E-3,-1.2665836E-2,-3.1854972E-2,1.05693504E-1,-1.2435336E-1,1.6989844E-1,-1.7861874E-1,7.349795E-2,-3.312664E-2,1.9851625E-1],"split_indices":[3,1,0,1,1,0,0,2,2,2,1,0,0,2,2,2,3,0,2,0,0,0,1,0,0,0,2,2,0,0,0,2,0,0,0,0,0,0,0,0,0,0,0],"split_type":[0,0,0,0,0,0,0,0,0,0,0,0,0,0,0,0,0,0,0,0,0,0,0,0,0,0,0,0,0,0,0,0,0,0,0,0,0,0,0,0,0,0,0],"sum_hessian":[6.2334546E2,6.202331E2,3.1123915E0,5.999533E2,2.0279787E1,1.1141813E0,1.9982102E0,5.900094E2,9.943869E0,1.2049571E1,8.230216E0,5.8672253E2,3.2869034E0,2.695685E0,7.2481837E0,9.146585E0,2.9029856E0,1.7521951E0,6.4780207E0,5.8473E2,1.9925612E0,1.1392968E0,2.1476066E0,1.158256E0,1.537429E0,1.6059521E0,5.642232E0,5.9284115E0,3.218174E0,1.8293225E0,1.073663E0,4.952668E0,1.5253521E0,3.4783688E2,2.3689307E2,1.1383302E0,1.0092765E0,1.7566713E0,3.8855605E0,2.6348968E0,3.2935147E0,3.9440918E0,1.0085765E0],"tree_param":{"num_deleted":"0","num_feature":"4","num_nodes":"43","size_leaf_vector":"1"}},{"base_weights":[-1.3475926E-3,-5.3297628E-2,1.1170916E-2,-1.0746254E-1,1.6563982E-2,3.0701298E-1,6.3517373E-3,-6.1177243E-2,-2.3736157E-1,6.517182E-1,-4.436971E-2,-3.8063943E-2,2.70453E-1,-3.7175658E-1,1.0773562E-2,-9.004133E-2,2.4582674E-1,3.2667866E-1,-6.05482E-2,-1.943413E-1,-9.755779E-3,1.5496089E-1,-9.215933E-2,5.977404E-2,-2.0889309E-1,1.22067936E-1,-2.5534155E-3,-7.0282936E-2,-1.7681451E-1,3.7956688E-1,-6.562088E-2,-8.255874E-2,1.8430242E-1,5.2478272E-2,6.933549E-1,-1.8823628E-1,8.972353E-3,-2.8967062E-2,1.8567052E-1,6.280172E-4,2.7057067E-1,-7.6104306E-2,1.7851165E-2,-4.3525927E-2,4.508344E-2,-3.787748E-2,2.9885828E-1,8.173202E-2,-1.4092067E-1,5.8750756E-2,-8.998442E-4],"categories":[],"categories_nodes":[],"categories_segments":[],"categories_sizes":[],"default_left":[0,0,0,0,0,0,0,0,0,0,0,0,0,0,0,0,0,0,0,0,0,0,0,0,0,0,0,0,0,0,0,0,0,0,0,0,0,0,0,0,0,0,0,0,0,0,0,0,0,0,0],"id":21,"left_children":[1,3,5,7,9,11,13,15,-1,17,19,21,-1,23,25,27,-1,-1,-1,-1,29,31,-1,-1,-1,33,35,37,-1,39,41,-1,-1,43,45,47,49,-1,-1,-1,-1,-1,-1,-1,-1,-1,-1,-1,-1,-1,-1],"loss_changes":[4.0574598E-1,4.6019733E-1,7.1495825E-1,2.1153774E0,2.1100476E0,1.683434E0,8.329513E-1,1.7290024E0,0E0,2.0001652E0,1.038083E0,3.616813E-1,0E0,1.2060671E0,7.286352E-1,5.8956707E-1,0E0,0E0,0E0,0E0,1.0755117E0,9.9612904E-1,0E0,0E0,0E0,2.0520787E0,9.423018E-1,1.1943101E0,0E0,1.2223234E0,1.0291779E0,0E0,0E0,9.475135E-1,1.5213113E0,3.464964E0,9.284865E-1,0E0,0E0,0E0,0E0,0E0,0E0,0E0,0E0,0E0,0E0,0E0,0E0,0E0,0E0],"parents":[2147483647,0,0,1,1,2,2,3,3,4,4,5,5,6,6,7,7,9,9,10,10,11,11,13,13,14,14,15,15,20,20,21,21,25,25,26,26,27,27,29,29,30,30,33,33,34,34,35,35,36,36],"right_children":[2,4,6,8,10,12,14,16,-1,18,20,22,-1,24,26,28,-1,-1,-1,-1,30,32,-1,-1,-1,34,36,38,-1,40,42,-1,-1,44,46,48,50,-1,-1,-1,-1,-1,-1,-1,-1,-1,-1,-1,-1,-1,-1],"split_conditions":[1E0,3.86944E3,1.63601E3,3.70753E3,4.06322E3,3E3,1.92443E3,3.66593E3,-2.3736157E-1,5E0,4.15215E3,1.37928E3,2.70453E-1,4E0,3.1172E3,3.5994E3,2.4582674E-1,3.2667866E-1,-6.05482E-2,-1.943413E-1,4.37783E3,1.15466E3,-9.215933E-2,5.977404E-2,-2.0889309E-1,3.05512E3,3.47069E3,3.53384E3,-1.7681451E-1,5E0,5.62742E3,-8.255874E-2,1.8430242E-1,2E3,4E0,2.5E3,3E0,-2.8967062E-2,1.8567052E-1,6.280172E-4,2.7057067E-1,-7.6104306E-2,1.7851165E-2,-4.3525927E-2,4.508344E-2,-3.787748E-2,2.9885828E-1,8.173202E-2,-1.4092067E-1,5.8750756E-2,-8.998442E-4],"split_indices":[3,2,2,2,2,1,2,2,0,0,2,2,0,0,2,2,0,0,0,0,2,2,0,0,0,2,2,2,0,0,2,0,0,1,0,1,0,0,0,0,0,0,0,0,0,0,0,0,0,0,0],"split_type":[0,0,0,0,0,0,0,0,0,0,0,0,0,0,0,0,0,0,0,0,0,0,0,0,0,0,0,0,0,0,0,0,0,0,0,0,0,0,0,0,0,0,0,0,0,0,0,0,0,0,0],"sum_hessian":[6.219857E2,1.2014471E2,5.01841E2,6.7371895E1,5.2772816E1,7.038711E0,4.9480228E2,6.412077E1,3.2511196E0,3.770871E0,4.900194E1,5.0458255E0,1.992886E0,4.7593484E0,4.9004294E2,6.2954998E1,1.1657739E0,2.3112242E0,1.4596468E0,1.6972996E0,4.730464E1,3.1854324E0,1.8603929E0,1.8647286E0,2.89462E0,5.1532505E1,4.3851044E2,6.1656082E1,1.2989173E0,5.208986E0,4.2095657E1,1.8520981E0,1.3333342E0,4.691014E1,4.6223626E0,2.4732483E1,4.1377795E2,6.0220192E1,1.4358903E0,3.6066172E0,1.6023687E0,1.6407728E1,2.568793E1,1.5372593E1,3.153755E1,1.4044377E0,3.2179253E0,9.392973E0,1.5339511E1,2.398878E1,3.8978915E2],"tree_param":{"num_deleted":"0","num_feature":"4","num_nodes":"51","size_leaf_vector":"1"}},{"base_weights":[-8.858619E-4,1.1445253E-1,-2.5214758E-3,-3.9003533E-3,1.2217425E-1,-5.3053014E-3,1.1236454E-1,-2.7929612E-3,-4.791308E-1,-5.5007E-3,2.8563148E-1,-1.887983E-1,-2.7791437E-2,-6.411963E-5,-7.728892E-2,2.5606304E-1,-6.765434E-2],"categories":[],"categories_nodes":[],"categories_segments":[],"categories_sizes":[],"default_left":[0,0,0,0,0,0,0,0,0,0,0,0,0,0,0,0,0],"id":22,"left_children":[1,-1,3,5,-1,7,-1,9,11,13,15,-1,-1,-1,-1,-1,-1],"loss_changes":[3.8908595E-1,0E0,3.512815E-1,3.3048132E-1,0E0,7.3257214E-1,0E0,4.813046E-1,1.3012058E-1,8.1246126E-1,1.8564258E0,0E0,0E0,0E0,0E0,0E0,0E0],"parents":[2147483647,0,0,2,2,3,3,5,5,7,7,8,8,9,9,10,10],"right_children":[2,-1,4,6,-1,8,-1,10,12,14,16,-1,-1,-1,-1,-1,-1],"split_conditions":[5E2,1.1445253E-1,6E0,1.65E4,1.2217425E-1,1.35E4,1.1236454E-1,1.2E4,1.018665E4,1E4,1E1,-1.887983E-1,-2.7791437E-2,-6.411963E-5,-7.728892E-2,2.5606304E-1,-6.765434E-2],"split_indices":[1,0,3,1,0,1,0,1,2,1,0,0,0,0,0,0,0],"split_type":[0,0,0,0,0,0,0,0,0,0,0,0,0,0,0,0,0],"sum_hessian":[6.195522E2,1.6495465E0,6.179026E2,6.168175E2,1.0851166E0,6.1551843E2,1.2990612E0,6.132726E2,2.245829E0,6.085405E2,4.732071E0,1.1648479E0,1.0809813E0,5.970222E2,1.1518288E1,1.924254E0,2.8078172E0],"tree_param":{"num_deleted":"0","num_feature":"4","num_nodes":"17","size_leaf_vector":"1"}},{"base_weights":[-3.215914E-4,-8.7886695E-3,6.416153E-2,-1.6198402E-3,-4.288245E-1,1.4444157E-1,-1.7077707E-1,-5.9031686E-3,2.7563903E-1,-4.379319E-2,-2.3164226E-1,5.3941983E-1,9.929932E-2,1.5560529E-1,-4.159485E-1,1.10072065E-2,-6.782387E-2,7.713064E-2,2.1411651E-1,-3.9050403E-1,1.939488E-1,7.8663296E-1,-6.838078E-2,1.7806655E-3,4.1574484E-1,7.474002E-1,-2.2001417E-1,-6.5132606E-1,-3.8194094E-2,5.500222E-3,2.3939773E-1,-2.729792E-1,4.340695E-2,1.6054499E-1,-1.4354542E-1,-1.8564504E-1,2.5733916E-2,3.2157242E-1,2.6547335E-2,-2.417871E-1,1.8903148E-1,-1.174113E-3,6.2085366E-1,-4.7615997E-2,3.5265523E-1,-4.3482536E-1,1.05775155E-1,-2.35626E-1,-2.867273E-1,-1.640585E-1,6.594792E-2,4.3930933E-3,-1.1398098E-1,-2.2593118E-2,-1.3649212E-1,8.719731E-2,-2.2730224E-2,1.5653254E-1,-1.5478481E-1,1.6904097E-2,-2.1019456E-1,5.31925E-3,1.7801413E-1,1.3227639E-1,-1.3682267E-1,3.3840907E-1,1.0949416E-1,-2.5267124E-1,1.1048738E-1,5.02356E-2,-1.9507341E-1,4.5083284E-2,-1.05794124E-1],"categories":[],"categories_nodes":[],"categories_segments":[],"categories_sizes":[],"default_left":[0,0,0,0,0,0,0,0,0,0,0,0,0,0,0,0,0,0,0,0,0,0,0,0,0,0,0,0,0,0,0,0,0,0,0,0,0,0,0,0,0,0,0,0,0,0,0,0,0,0,0,0,0,0,0,0,0,0,0,0,0,0,0,0,0,0,0,0,0,0,0,0,0],"id":23,"left_children":[1,3,5,7,9,11,13,15,17,19,-1,21,23,25,27,29,31,33,-1,35,-1,37,-1,39,41,43,45,47,49,51,-1,53,55,-1,57,-1,-1,-1,-1,59,61,63,65,-1,-1,67,-1,69,-1,71,-1,-1,-1,-1,-1,-1,-1,-1,-1,-1,-1,-1,-1,-1,-1,-1,-1,-1,-1,-1,-1,-1,-1],"loss_changes":[3.3902046E-1,1.6519294E0,1.383979E0,6.4366966E-1,1.1831096E0,9.1385436E-1,1.5701457E0,5.5925E-1,6.6204315E-1,1.5447295E0,0E0,1.1921955E0,1.5396909E0,2.1200917E0,9.5455575E-1,1.8150876E0,2.625997E0,7.6369345E-1,0E0,5.117184E-1,0E0,7.5418997E-1,0E0,1.8318548E0,1.0059409E0,1.5999265E0,9.103088E-1,6.257813E-1,2.0789383E-1,1.4783757E0,0E0,1.4195304E0,2.2362554E0,0E0,1.6008738E0,0E0,0E0,0E0,0E0,2.4281142E0,1.5619626E0,1.1813476E0,6.1099815E-1,0E0,0E0,1.9210646E0,0E0,8.0577075E-1,0E0,2.9775682E-1,0E0,0E0,0E0,0E0,0E0,0E0,0E0,0E0,0E0,0E0,0E0,0E0,0E0,0E0,0E0,0E0,0E0,0E0,0E0,0E0,0E0,0E0,0E0],"parents":[2147483647,0,0,1,1,2,2,3,3,4,4,5,5,6,6,7,7,8,8,9,9,11,11,12,12,13,13,14,14,15,15,16,16,17,17,19,19,21,21,23,23,24,24,25,25,26,26,27,27,28,28,29,29,31,31,32,32,34,34,39,39,40,40,41,41,42,42,45,45,47,47,49,49],"right_children":[2,4,6,8,10,12,14,16,18,20,-1,22,24,26,28,30,32,34,-1,36,-1,38,-1,40,42,44,46,48,50,52,-1,54,56,-1,58,-1,-1,-1,-1,60,62,64,66,-1,-1,68,-1,70,-1,72,-1,-1,-1,-1,-1,-1,-1,-1,-1,-1,-1,-1,-1,-1,-1,-1,-1,-1,-1,-1,-1,-1,-1],"split_conditions":[9.13464E3,8.91039E3,8E3,4E0,4.5E3,9.27791E3,1.068293E4,5.5E3,8.5E3,8E0,-2.3164226E-1,6.5E3,6.5E3,9E0,1.345187E4,1.2E1,6.5E3,3E3,2.1411651E-1,3.5E3,1.939488E-1,8E0,-6.838078E-2,2E0,1.039409E4,7E0,1.7E1,2E0,1.7E1,1E1,2.3939773E-1,5.34189E3,4.5101E3,1.6054499E-1,5.8766E3,-1.8564504E-1,2.5733916E-2,3.2157242E-1,2.6547335E-2,7E0,5.5E3,1E1,1.113599E4,-4.7615997E-2,3.5265523E-1,3E0,1.05775155E-1,1.187961E4,-2.867273E-1,1.474739E4,6.594792E-2,4.3930933E-3,-1.1398098E-1,-2.2593118E-2,-1.3649212E-1,8.719731E-2,-2.2730224E-2,1.5653254E-1,-1.5478481E-1,1.6904097E-2,-2.1019456E-1,5.31925E-3,1.7801413E-1,1.3227639E-1,-1.3682267E-1,3.3840907E-1,1.0949416E-1,-2.5267124E-1,1.1048738E-1,5.02356E-2,-1.9507341E-1,4.5083284E-2,-1.05794124E-1],"split_indices":[2,2,1,3,1,2,2,1,1,0,0,1,1,0,2,0,1,1,0,1,0,0,0,3,2,0,0,3,0,0,0,2,2,0,2,0,0,0,0,0,1,0,2,0,0,3,0,2,0,2,0,0,0,0,0,0,0,0,0,0,0,0,0,0,0,0,0,0,0,0,0,0,0],"split_type":[0,0,0,0,0,0,0,0,0,0,0,0,0,0,0,0,0,0,0,0,0,0,0,0,0,0,0,0,0,0,0,0,0,0,0,0,0,0,0,0,0,0,0,0,0,0,0,0,0,0,0,0,0,0,0,0,0,0,0,0,0,0,0,0,0,0,0,0,0,0,0,0,0],"sum_hessian":[6.1890247E2,5.4783203E2,7.107041E1,5.3962604E2,8.20604E0,5.3257256E1,1.7813158E1,5.3238007E2,7.2459464E0,4.399516E0,3.806524E0,4.339437E0,4.891782E1,7.7977676E0,1.0015389E1,4.188229E2,1.1355716E2,5.795772E0,1.4501742E0,3.2176697E0,1.1818464E0,3.2630756E0,1.0763617E0,3.8162846E1,1.0754973E1,2.6433475E0,5.15442E0,5.7243567E0,4.291033E0,4.169125E2,1.9103856E0,3.941167E1,7.4145485E1,1.4211298E0,4.3746424E0,1.9727471E0,1.2449226E0,1.9364358E0,1.3266398E0,1.6460497E1,2.170235E1,3.8742237E0,6.8807497E0,1.0500828E0,1.5932647E0,3.9232247E0,1.2311953E0,3.1698825E0,2.554474E0,3.128897E0,1.1621358E0,4.081913E2,8.721203E0,1.9570005E1,1.9841667E1,2.3646734E1,5.0498753E1,1.4259689E0,2.9486735E0,1.0509443E1,5.951054E0,1.597743E1,5.724919E0,1.9803528E0,1.893871E0,1.1643307E0,5.716419E0,2.5705183E0,1.3527064E0,1.9095824E0,1.2603002E0,1.2494617E0,1.8794353E0],"tree_param":{"num_deleted":"0","num_feature":"4","num_nodes":"73","size_leaf_vector":"1"}},{"base_weights":[-3.4527246E-5,-3.690369E-2,1.9334616E-2,-2.244481E-3,-4.7235572E-1,7.437512E-1,9.559459E-3,-2.868471E-2,2.6110685E-1,-3.7767563E-2,-6.269418E-1,3.5015872E-1,3.4300604E-1,2.7148062E-1,-3.6189002E-3,-3.7566755E-2,2.2980879E-1,4.5672682E-1,-2.1938637E-1,-2.9489428E-1,1.453071E-1,4.1452497E-2,-7.636044E-1,2.0145905E-1,-7.2962075E-2,4.0919393E-2,9.1926044E-1,2.8283742E-1,-1.7475909E-2,-1.9302336E-2,-4.5758316E-1,-1.13654055E-1,6.737206E-1,2.3921417E-1,-5.978182E-1,-1.9867435E-2,-1.2736073E-1,-1.0250038E0,4.3070953E-2,2.3895696E-1,-1.6746159E-1,3.1284508E-1,9.951985E-2,1.36841E-1,2.6844054E-1,-2.2678035E-1,8.33791E-4,4.2863134E-3,-7.8450814E-2,-1.8697673E-1,8.951129E-2,3.16815E-1,1.9014591E-2,-2.3682858E-1,-4.0686447E-2,-3.3770895E-1,-9.838009E-2,1.4810435E-1,-1.2658529E-1,-9.81006E-2,1.444162E-1,-1.9839941E-1,2.6184678E-2,8.13037E-2,-1.991401E-1,-1.077753E-1,1.1043856E-1,6.7881994E-2,-3.2220914E-3],"categories":[],"categories_nodes":[],"categories_segments":[],"categories_sizes":[],"default_left":[0,0,0,0,0,0,0,0,0,0,0,0,0,0,0,0,0,0,0,0,0,0,0,0,0,0,0,0,0,0,0,0,0,0,